tree
version=v4
num_class=1
num_tree_per_iteration=1
label_index=0
max_feature_idx=21
objective=lambdarank
feature_names=real_push_score push_count boo_count life_minutes push_acceleration author_avg_push content_word_count q_mark_density e_mark_density content_url_ratio hour_sin hour_cos is_weekend is_morning is_noon is_afternoon is_evening is_night title_hot_score push_velocity category source_board
feature_infos=[-155:832] [0:909] [0:244] [-0.089999999999999997:627.45000000000005] [-4.8014000000000001:100] [-0.059999999999999998:42.880000000000003] [1:17662] [0:0.37109999999999999] [0:0.15279999999999999] [0:0.20000000000000001] [-1:1] [-1:1] none [0:1] [0:1] [0:1] [0:1] [0:1] [0:6.8134445995108956] [-0.070838252656434467:7.7256317689530691] [137:909] none
tree_sizes=3449 3413 3434 3434 3437 3432 3430 3425 3436 3416 3429 3430 3424 3425 3450 3427 3445 3427 3416 3444 3433 3415 3434 3442 3440 3444 3441 3447 3434 3427 3436 3432 3440 3433 3414 3448 3449 3433 3417 3445 3434 3454 3427 3428 3420 3416 3458 3458 3443 3440 3431 3437 3437 3431 3437 3459

Tree=0
num_leaves=31
num_cat=0
split_feature=1 6 10 3 5 18 1 1 10 19 9 6 3 9 6 3 3 1 6 11 5 17 5 18 18 18 18 0 11 18
split_gain=1377.05 42.8588 29.5912 24.1883 20.3178 18.186 16.3208 15.1923 11.963 10.416 9.82396 9.13976 8.49537 8.05093 7.61996 7.56659 6.88116 6.09443 5.89 5.55475 5.47839 5.43368 5.13252 4.11999 3.33949 5.69251 3.20812 3.15594 3.02819 4.17531
threshold=14.500000000000002 268.50000000000006 0.9829500000000001 9.1550000000000029 5.6100000000000003 1.919367604829157 29.500000000000004 10.500000000000002 0.91595000000000015 0.55193568859741915 0.00095000000000000011 395.50000000000006 45.465000000000011 0.032000000000000008 696.50000000000011 10.145000000000001 8.1250000000000018 9.5000000000000018 65.500000000000014 0.37940000000000002 23.940000000000001 1.0000000180025095e-35 2.7650000000000001 5.9129665834021425 4.1321142112400997 4.0785956453589094 2.6279409840083066 -6.4999999999999991 -0.78654999999999986 0.71754226264466137
decision_type=2 2 2 2 2 2 2 2 2 2 2 2 2 2 2 2 2 2 2 2 2 2 2 2 2 2 2 2 2 2
left_child=1 8 3 4 23 -6 18 20 17 13 -9 -7 -4 15 -13 16 -10 28 -2 -16 27 -19 -20 24 25 -3 -23 -5 29 -1
right_child=6 2 12 7 5 11 -8 10 9 -11 -12 14 -14 -15 19 -17 -18 21 22 -21 -22 26 -24 -25 -26 -27 -28 -29 -30 -31
leaf_value=-0.04790364097132286 -0.063958244243776843 -0.06522379794756708 0.073350692188618768 -0.021510449232342632 -0.060691554178951959 -0.068584302659433063 0.098202636802359952 0.08788100697964879 -0.095151516183556967 0.069958879568399898 -0.060125069454364792 0.062617056437626814 -0.087974952466885512 0.094613504910480054 -0.076539245862501354 -0.092217285763948401 0.062061068480277252 -0.074953782195602364 -0.052100504814029364 0.049080772074203471 0.038402839150533455 0.088639306818011188 0.06335161602143935 0.025731312335752474 -0.099197837746494308 0.074107267078009104 -0.040607747007788075 -0.094225529059097729 -0.097055827934981534 -0.088635248276627526
leaf_weight=7.5464396261712414 1.0627259329727419 10.208476535945358 6.1536999109630441 1.5510607292211762 8.0763660672220059 2.0705594813563293 199.75381556429784 2.0684764388385011 1.1462613933740518 1.7665698962036902 2.4480667546578729 11.829951581258255 0.94080859764678937 0.79434022384971648 1.9823602993680602 9.0972322241212478 1.7720377294135685 3.8327490285319632 1.0181656608864411 1.5825181944771882 0.82853081859758404 1.0226546368248817 17.654010384131539 1.1348298001657884 7.1047062383457158 0.78978908865246999 0.90500419744012095 39.304937037309834 118.23555027386678 37.839469123015782
leaf_count=854 1280 285 56 651 221 51 6630 296 59 12 2049 99 269 27 62 2461 19 4177 591 10 117 50 5994 14 255 5 107 21363 40853 18547
internal_value=1.20312e-10 -0.0730897 -0.0463953 -0.0540647 -0.0278777 0.00135169 0.0939171 -0.0794459 -0.0873215 -0.0438566 0.00765843 0.0300418 0.0519572 -0.0595526 0.0433067 -0.0697444 0.00031047 -0.091062 0.0505395 -0.0207741 -0.0888837 -0.0405148 0.0570562 -0.0666852 -0.0724786 -0.0552184 0.0279599 -0.091465 -0.0928415 -0.0818627
internal_weight=501.522 282.033 98.0751 90.9806 44.7796 25.5418 219.489 46.2011 183.958 14.5764 4.51654 17.4654 7.09451 12.8099 15.3948 12.0155 2.9183 169.382 19.7349 3.56488 41.6845 5.76041 18.6722 19.2378 18.103 10.9983 1.92766 40.856 163.621 45.3859
internal_count=107464 92969 25803 25478 1002 443 14495 24476 67166 2578 2345 222 325 2566 171 2539 78 64588 7865 72 22131 4334 6585 559 545 290 157 22014 60254 19401
is_linear=0
shrinkage=0.05


Tree=1
num_leaves=31
num_cat=0
split_feature=1 19 4 17 4 2 2 11 10 19 4 19 2 11 3 4 10 2 6 5 6 6 11 5 4 1 19 1 18 4
split_gain=2950.36 321.868 229.799 127.212 266.443 96.5159 94.8555 102.443 90.5524 84.2451 76.6914 71.4132 64.3416 83.3117 39.591 36.0101 36.3765 31.5577 25.0962 25.25 22.1825 24.8416 20.5396 14.7632 14.5414 13.3437 19.1961 12.253 11.6995 11.4885
threshold=58.500000000000007 0.90195932354913222 0.63995000000000013 1.0000000180025095e-35 0.058750000000000004 8.5000000000000018 43.500000000000007 0.78655000000000008 0.9829500000000001 1.0032396389217981 1.3001500000000001 0.18419043849481218 7.5000000000000009 0.9829500000000001 6.0650000000000004 1.7499000000000002 0.91595000000000015 107.50000000000001 79.500000000000014 2.5650000000000004 571.50000000000011 705.50000000000011 0.91595000000000015 6.6050000000000013 0.38405000000000006 138.50000000000003 1.135394052075932 44.500000000000007 4.5699129676662968 0.21425000000000002
decision_type=2 2 2 2 2 2 2 2 2 2 2 2 2 2 2 2 2 2 2 2 2 2 2 2 2 2 2 2 2 2
left_child=1 3 6 8 -5 9 7 24 10 28 12 14 -1 17 -10 16 20 22 -6 -20 -3 -22 -14 -21 -2 26 -7 -24 -4 -13
right_child=2 15 5 4 18 25 -8 -9 11 -11 -12 29 13 -15 -16 -17 -18 -19 19 23 21 -23 27 -25 -26 -27 -28 -29 -30 -31
leaf_value=-0.088482538073439004 -0.080273645224394452 -0.034599166719105318 -0.04780777365021377 -0.086303619974172394 -0.06248137798903361 0.040793109226696107 0.073865197321224221 0.05905118145165264 0.069140352924383447 0.071085024119435111 0.056130017604985594 0.0068236883169478296 -0.081415983850016513 0.065330277684194013 -0.087513387194078376 0.07325623879946834 0.088954840622187073 0.055158741274022642 -0.093588509302654055 0.056852656560413932 0.057806217179742603 -0.036396773494878763 -0.054727821635006869 -0.034796545017943964 -0.032658505623290715 0.092834419002218074 0.085481563575491762 0.039175421518915905 0.0051475492270029368 0.083857407088699876
leaf_weight=583.1140409624204 26.069132684962824 34.019922018109355 15.930764713324605 92.088048893288942 5.8391001601703456 31.61134519521147 41.028913868591189 30.756903409957886 4.8272081986069706 83.294884843751788 10.209648823336464 7.2964090728200999 74.016224037099164 14.435329672414808 24.521663864987204 29.100930428132415 11.707509610801933 5.268754204735159 3.1490621096454552 68.770072252023965 19.580931478529241 10.890561686363069 8.4307013552752306 4.6939328289590767 41.656207958934829 454.21501737367362 100.20362720638514 5.9085842408239833 30.206835580989718 14.376005936414002
leaf_count=94139 661 267 89 3677 208 157 188 82 21 102 44 46 3905 53 1161 27 11 48 110 387 46 57 93 92 727 750 89 36 168 23
internal_value=8.25916e-10 -0.0568959 0.0686928 -0.0663063 -0.0278483 0.0801395 0.00999022 -0.0166209 -0.0752276 0.0410631 -0.0799059 -0.010915 -0.0819154 -0.0464775 -0.0617475 0.0259423 0.00787277 -0.0637165 0.0374384 0.0450538 -0.00684653 0.0241379 -0.0708052 0.0509968 -0.0509867 0.08877 0.0747646 -0.0160345 -0.0131373 0.0579226
internal_weight=1887.22 1032.24 854.974 926.945 174.54 715.462 139.511 98.4822 752.405 129.432 701.383 51.0213 691.174 108.06 29.3489 105.3 76.1989 93.6243 82.4522 76.6131 64.4914 30.4715 88.3555 73.464 67.7253 586.03 131.815 14.3393 46.1376 21.6724
internal_count=107464 104451 3013 104043 4474 1355 1658 1470 99569 359 98318 1251 98274 4135 1182 408 381 4082 797 589 370 103 4034 479 1388 996 246 129 257 69
is_linear=0
shrinkage=0.05


Tree=2
num_leaves=31
num_cat=0
split_feature=1 19 1 10 11 19 11 2 4 2 19 17 4 2 4 11 10 2 3 10 18 1 11 19 2 2 11 0 2 4
split_gain=3883.62 219.002 143.798 88.69 48.507 86.6342 40.0118 30.3345 33.768 29.6584 23.6295 22.0702 63.9897 21.4343 17.4429 26.3344 13.6663 13.5833 12.6173 25.4297 12.5035 11.8839 12.4685 22.661 12.5616 9.70319 11.5122 9.58973 7.85166 7.28732
threshold=32.500000000000007 0.17764628533859306 67.500000000000014 0.60355000000000014 0.91595000000000015 0.70285055620608905 -1.0000000180025095e-35 112.50000000000001 0.78255000000000008 13.500000000000002 0.55193568859741915 1.0000000180025095e-35 0.058750000000000004 1.0000000180025095e-35 0.89200000000000013 -1.0000000180025095e-35 0.60355000000000014 64.500000000000014 9.1550000000000029 0.91595000000000015 3.0693432584303633 219.50000000000003 0.60355000000000014 0.65619304374240595 64.500000000000014 29.500000000000004 0.9829500000000001 23.500000000000004 12.500000000000002 0.20805000000000004
decision_type=2 2 2 2 2 2 2 2 2 2 2 2 2 2 2 2 2 2 2 2 2 2 2 2 2 2 2 2 2 2
left_child=1 11 4 17 5 7 10 8 -2 14 -5 18 -13 -14 15 -4 27 -3 19 -1 -12 22 23 24 -11 -20 -27 -15 29 -6
right_child=2 3 9 6 28 -7 -8 -9 -10 21 20 12 13 16 -16 -17 -18 -19 25 -21 -22 -23 -24 -25 -26 26 -28 -29 -30 -31
leaf_value=-0.080331349150279396 -0.071164100718434223 -0.08076135252454951 -0.018986286498352774 -0.078326147380153116 0.081855223221892037 0.061590744573997637 0.05860679673118873 0.069582691558917872 0.05643754556929699 0.028221292050157939 -0.079220663464665136 -0.082469125188966291 -0.061801410737894115 -0.067936892062163162 0.066298524438698866 0.058347906217236581 0.051566234218279605 0.081379206088485839 -0.085180030770691903 0.010834605117676135 0.062956977320611285 0.084534950614491011 0.085567595681934241 0.075887010788433129 0.077961402148117295 -0.075010271552403709 0.057344254365954132 0.040688746254212455 0.0070851030587390298 0.038434679404639245
leaf_weight=27.630876363953575 41.713129367213696 27.017981915967543 17.625805966090411 10.428432700689884 27.881501441821456 32.021719433832914 45.522587734274566 5.4151172218844286 5.9207307673059395 50.350884991232306 1.9767780220136026 91.029442544095218 10.642798649147151 5.3830403978936392 99.323799764271826 29.320821275934577 15.449931883253155 1.3565555801615108 700.24419683474116 10.577390685677527 7.1017825705930591 424.90028202114627 108.41734363883734 144.38808788964525 16.971599981188774 4.4622090198099604 2.6003650464117527 3.2636552676558495 6.3184593711048356 14.78847457282245
leaf_count=3184 2865 3185 604 499 33 242 167 41 79 608 81 3659 370 152 319 263 85 7 89483 98 61 384 83 211 50 443 14 23 72 99
internal_value=-8.8833e-11 -0.0720114 0.0677505 0.000749494 0.0194699 -0.00335351 0.032933 -0.0425555 -0.0553036 0.0750123 -0.0269808 -0.0798115 -0.0604369 -0.00270465 0.0544278 0.0293133 0.0233967 -0.0730096 -0.0830801 -0.0550934 0.031999 0.0790537 0.0717785 0.064717 0.0407605 -0.0845919 -0.0262787 -0.0269366 0.0591038 0.0668066
internal_weight=1990.05 964.688 1025.36 93.4041 134.059 85.0707 65.0296 53.049 47.6339 891.299 19.507 871.284 125.769 34.7394 146.27 46.9466 24.0966 28.3745 745.515 38.2083 9.07856 745.028 320.128 211.711 67.3225 707.307 7.06257 8.6467 48.9884 42.67
internal_count=107464 101511 5953 4000 3431 3227 808 2985 2944 2522 641 97511 4289 630 1186 867 260 3192 93222 3282 142 1336 952 869 658 89940 457 175 204 132
is_linear=0
shrinkage=0.05


Tree=3
num_leaves=31
num_cat=0
split_feature=1 19 1 10 19 11 2 4 10 11 19 17 1 1 9 2 18 3 10 2 11 0 18 10 4 4 4 3 18 2
split_gain=3535.84 187.188 102.993 71.6886 40.6114 56.4104 27.8836 31.7047 27.1461 24.6203 20.7504 20.5176 66.7788 19.8174 13.9782 11.4474 9.6882 8.6746 18.6397 8.7635 7.8203 7.74158 16.408 7.54077 6.31651 7.87225 6.08566 4.89813 5.08007 4.5601
threshold=32.500000000000007 0.17764628533859306 138.50000000000003 0.60355000000000014 0.90195932354913222 -1.0000000180025095e-35 112.50000000000001 0.47650000000000009 -1.0000000180025095e-35 -1.0000000180025095e-35 0.55193568859741915 1.0000000180025095e-35 11.500000000000002 69.500000000000014 0.032000000000000008 64.500000000000014 3.0693432584303633 9.1550000000000029 0.91595000000000015 29.500000000000004 0.9829500000000001 7.5000000000000009 1.8354304743056293 -0.3793999999999999 0.085750000000000007 0.087250000000000008 0.05705000000000001 24.635000000000002 4.6711139571093563 15.500000000000002
decision_type=2 2 2 2 2 2 2 2 2 2 2 2 2 2 2 2 2 2 2 2 2 2 2 2 2 2 2 2 2 2
left_child=1 11 4 15 5 6 7 29 13 10 -5 17 14 23 24 -3 -12 18 -1 -19 -21 22 -11 -7 -13 -26 -14 -9 -29 -2
right_child=2 3 -4 9 -6 8 -8 27 -10 21 16 12 26 -15 -16 -17 -18 19 -20 20 -22 -23 -24 -25 25 -27 -28 28 -30 -31
leaf_value=-0.07519855593771034 -0.07804735720008589 -0.076430967785362666 0.076007612535667027 -0.071423698198523858 0.065356362176842556 -0.049616989076843199 0.058781644235994003 0.075942010153598097 0.065934921655027942 0.056777450702794656 -0.073451290459196267 -0.078804499262484465 -0.064477468066936577 0.043917643563896963 0.037023168633579163 0.072616218437093732 0.055839531267293498 -0.079928329629143702 0.0060944165398246165 -0.066594987315565943 0.0412234979663346 0.060384389095731288 -0.062112078479958692 0.016716508667650922 0.076904905423713879 -0.055966326607220118 0.037189265848887459 -0.02481421638155476 0.023612766712269934 -0.032627907945766969
leaf_weight=27.921129440190271 19.132995816878978 25.595940028317276 717.63481805101037 9.627997334115209 103.6528799245134 11.137016253080221 11.55816539749503 2.7372561926022199 71.583187616430223 8.1592336008325201 1.7731550354510526 92.392232937039807 1.6040617143735314 26.227295754477382 2.8473016982898107 1.3565234690904606 7.924102864228189 712.60958440857939 9.43384752422571 4.2387193667236707 2.7880252525210381 33.492662152275443 4.5040672644972792 6.9630992989987126 1.3918675985187281 5.5989716649055481 17.87044137250632 8.7421402507461625 14.231203679926692 7.7706762552261344
leaf_count=3184 1933 3185 959 499 378 767 67 6 242 29 81 3767 86 294 26 7 61 89483 98 443 14 88 50 111 6 249 155 414 355 427
internal_value=-2.52083e-10 -0.0679777 0.0659248 -0.000295443 0.0404229 0.0260716 -0.0115382 -0.0269858 0.0468938 0.0279547 -0.0194269 -0.0750974 -0.0560426 0.0161447 -0.0722077 -0.0689294 0.0321986 -0.078161 -0.0546683 -0.0793804 -0.0238155 0.0477931 0.014491 -0.0240985 -0.0753371 -0.0295118 0.0288153 0.0127178 0.00518465 -0.0649287
internal_weight=1972.5 971.13 1001.37 92.4337 283.736 180.083 64.1724 52.6143 115.911 65.4812 19.3253 878.696 121.705 44.3274 102.23 26.9525 9.69726 756.991 37.355 719.636 7.02674 46.156 12.6633 18.1001 99.3831 6.99084 19.4745 25.7106 22.9733 26.9037
internal_count=107464 101511 5953 4000 4994 4616 3202 3135 1414 808 641 97511 4289 1172 4048 3192 142 93222 3282 89940 457 167 79 878 4022 255 241 775 769 2360
is_linear=0
shrinkage=0.05


Tree=4
num_leaves=31
num_cat=0
split_feature=1 19 1 10 19 11 10 11 17 4 2 4 6 2 4 2 18 3 10 2 6 1 10 11 3 4 5 10 18 2
split_gain=3096.38 155.638 84.1482 61.7642 34.6815 39.3235 21.7498 21.4733 17.981 55.1657 17.5372 28.7153 14.7369 14.4652 13.6348 11.0262 10.6918 9.21955 14.9054 8.55219 8.16502 7.77973 6.74839 6.62264 6.47271 5.66547 13.6299 6.27895 11.3002 5.39438
threshold=32.500000000000007 0.17764628533859306 151.50000000000003 0.60355000000000014 0.90195932354913222 -1.0000000180025095e-35 -0.78654999999999986 -0.3793999999999999 1.0000000180025095e-35 0.058750000000000004 112.50000000000001 0.45025000000000004 79.500000000000014 1.0000000180025095e-35 1.3001500000000001 64.500000000000014 3.9923733107736417 9.1550000000000029 0.91595000000000015 29.500000000000004 100.50000000000001 58.500000000000007 0.60355000000000014 0.9829500000000001 193.71500000000003 0.27055000000000007 6.6050000000000013 0.91595000000000015 2.2542072587618924 3.5000000000000004
decision_type=2 2 2 2 2 2 2 2 2 2 2 2 2 2 2 2 2 2 2 2 2 2 2 2 2 2 2 2 2 2
left_child=1 8 4 15 5 10 21 14 17 -10 11 -2 -9 -11 -5 -3 -8 18 -1 -19 -18 -7 24 -21 -15 26 27 -14 -29 -6
right_child=2 3 -4 7 29 6 16 12 9 13 -12 -13 25 22 -16 -17 20 19 -20 23 -22 -23 -24 -25 -26 -27 -28 28 -30 -31
leaf_value=-0.067984261934511889 -0.058735386173676879 -0.074706785504339998 0.071485195990280428 -0.074285442650901076 0.023178226834740759 -0.063553203637687281 0.0046603037344842098 -0.08089126353758129 -0.073516798279508896 -0.049350693871609404 0.053127348414381714 0.014907221753659772 0.062527032665515916 -0.068943983295439104 0.066212403737449785 0.066470408911018491 0.0089896764663443905 -0.075712275555928785 0.0049690815361548837 -0.059548118700535724 0.061499177199733003 0.011881837268196591 0.043845771621595586 0.040934767571636665 0.027756031762450312 0.067259762517695734 -0.063359581212497781 0.050473209370804739 -0.048075377677888415 0.063695371659877112
leaf_weight=27.815090889111161 23.098670115228742 24.218565040035177 684.25908434391022 7.6081425906158966 8.8554636845365149 4.7980982069857445 10.872282167430965 2.4822599655017248 86.537674791179597 9.1200427040457743 10.846221314743159 31.005392905790359 17.032592702656984 3.1222284901887205 2.2338490150868893 1.4668063297867764 8.0950043937191349 699.77865202678367 9.3567709010094386 4.1188528817147008 86.631157507654279 11.881850482895969 15.40349912829697 2.7244251295924187 3.8822624236345291 17.131977091543376 3.3761897385120383 8.3657918516546506 4.4594602482393375 113.5728612691164
leaf_count=3184 2277 3185 813 477 88 429 203 61 3659 370 67 931 22 148 7 7 116 89483 98 443 431 283 85 14 27 52 61 39 89 315
internal_value=1.03811e-10 -0.0645344 0.0616982 -0.00134218 0.0400717 0.0265406 0.0432409 0.0254134 -0.0710142 -0.0528873 -0.00490027 -0.016533 0.0380418 0.00373621 -0.0423965 -0.0666446 0.0516218 -0.0738915 -0.0496207 -0.0751683 0.0570119 -0.00981755 0.0253426 -0.0195442 -0.0153477 0.0439033 0.0318632 0.0426305 0.0162069 0.0607647
internal_weight=1944.15 950.235 993.916 88.3756 309.657 187.229 122.278 62.6903 861.859 118.066 64.9503 54.1041 52.8483 31.528 9.84199 25.6854 105.598 743.794 37.1719 706.622 94.7262 16.6799 22.408 6.84328 7.00449 50.366 33.234 29.8578 12.8253 122.428
internal_count=107464 101511 5953 4000 5140 4737 1462 808 97511 4289 3275 3208 324 630 484 3192 750 93222 3282 89940 547 712 260 457 175 263 211 150 128 403
is_linear=0
shrinkage=0.05


Tree=5
num_leaves=31
num_cat=0
split_feature=1 19 1 10 9 11 11 4 10 2 17 1 19 1 2 18 1 11 19 3 2 2 3 10 9 10 18 19 9 4
split_gain=2756.69 146.828 73.5594 53.7514 27.1857 19.6823 16.0276 29.5387 15.4819 15.2487 15.1407 48.6972 14.6091 14.0324 13.9529 9.59195 8.12733 9.16774 12.9343 8.00106 10.2762 7.70679 7.45747 10.457 7.42519 7.41023 7.15926 7.08801 6.83367 6.32477
threshold=32.500000000000007 0.17764628533859306 138.50000000000003 0.60355000000000014 0.00125 -1.0000000180025095e-35 -0.3793999999999999 1.3001500000000001 -1.0000000180025095e-35 15.500000000000002 1.0000000180025095e-35 11.500000000000002 0.55193568859741915 58.500000000000007 64.500000000000014 4.6711139571093563 236.50000000000003 0.37940000000000002 0.79955604883462827 46.495000000000012 1.5000000000000002 29.500000000000004 9.1550000000000029 0.91595000000000015 0.032000000000000008 0.91595000000000015 3.0693432584303633 0.27185200138226934 0.0020500000000000002 0.45025000000000004
decision_type=2 2 2 2 2 2 2 2 2 2 2 2 2 2 2 2 2 2 2 2 2 2 2 2 2 2 2 2 2 2
left_child=1 10 4 14 13 12 7 9 15 29 21 19 -5 -2 -3 28 17 18 -4 20 24 22 23 -1 -12 -13 -14 -7 -8 -6
right_child=2 3 16 5 6 27 8 -9 -10 -11 11 25 26 -15 -16 -17 -18 -19 -20 -21 -22 -23 -24 -25 -26 -27 -28 -29 -30 -31
leaf_value=-0.064474944641867274 -0.031177378075622954 -0.071609391453094556 0.035427154002678256 -0.061819882325208887 -0.07261735056234124 0.017219480417648682 0.028769384530436662 0.058025719771737351 0.065149634234933154 0.0256848298764044 -0.065248426688262057 0.030428660279199743 -0.064680562727464766 0.0237092380664847 0.065450528671762404 0.048529042585270188 0.070834911365914729 0.072464815531153373 0.06342735867277545 -0.071984436971225849 0.048917854298234767 -0.017460548304248005 -0.072301730093853461 -0.0023949254607009388 0.073415343450421722 -0.082396024418778926 0.048863809907329928 0.059544951485792336 -0.030008622068705571 -0.014026260900221183
leaf_weight=27.321365787880495 19.093599756248295 23.414249486755583 65.06116714887321 9.2564575006254035 7.5239775413647321 15.474236628971992 11.922643867786975 34.841257242485881 94.36199557594955 19.721275368705392 11.103731312789021 17.77538266545162 1.7108226260170321 29.850665744859725 2.0168213117867699 31.099165831692517 444.76163782179356 94.297516234219074 112.66540334373713 80.918238138547167 3.0900511574000111 6.7503006134647867 687.16032978077419 9.0237045139074308 1.0573660722002376 1.585116447880863 7.3636700809001923 27.417019746266305 8.4494113777764124 11.87634221324697
leaf_count=3184 1164 3185 397 499 947 100 229 134 263 479 597 174 81 641 7 243 365 56 141 3406 39 457 89483 98 6 67 61 67 432 462
internal_value=-6.99587e-10 -0.0616265 0.0583069 0.000360658 0.0359977 0.0257412 0.0435021 0.0245431 0.0531176 -0.00527623 -0.0679773 -0.0511582 -0.0176245 0.00229747 -0.0607398 0.0310594 0.0666711 0.0598633 0.0531772 -0.0657233 -0.0325035 -0.0706381 -0.0711343 -0.0490618 -0.0531921 0.0211913 0.0274572 0.0442748 0.00439091 -0.0367495
internal_weight=1917.96 932.439 985.526 86.6533 268.74 61.2222 219.796 73.9629 145.833 39.1216 845.786 115.53 18.331 48.9443 25.4311 51.4712 716.786 272.024 177.727 96.1694 15.2511 730.256 723.505 36.3451 12.1611 19.3605 9.07449 42.8913 20.3721 19.4003
internal_count=107464 101511 5953 4000 4994 808 3189 2022 1167 1888 97511 4289 641 1805 3192 904 959 594 538 4048 642 93222 92765 3282 603 241 142 167 661 1409
is_linear=0
shrinkage=0.05


Tree=6
num_leaves=31
num_cat=0
split_feature=1 19 4 10 11 2 2 10 1 11 17 4 2 19 2 2 19 11 3 10 6 6 1 10 6 3 11 19 2 4
split_gain=2534.46 129.311 69.7996 47.4084 37.2164 23.6115 17.4533 17.3914 21.2706 17.1989 13.2561 46.1916 13.1134 12.1972 10.0572 8.58116 8.35838 7.3676 7.30338 9.49656 6.61615 6.55498 6.15218 5.60557 5.54738 5.32393 5.1691 7.45383 4.93709 4.51336
threshold=32.500000000000007 0.17764628533859306 0.58805000000000007 0.60355000000000014 -0.3793999999999999 16.500000000000004 10.500000000000002 -0.3793999999999999 67.500000000000014 -1.0000000180025095e-35 1.0000000180025095e-35 0.058750000000000004 64.500000000000014 0.55193568859741915 1.0000000180025095e-35 29.500000000000004 1.1918208825895897 0.9829500000000001 9.1550000000000029 0.91595000000000015 98.500000000000014 95.500000000000014 277.50000000000006 0.60355000000000014 363.50000000000006 197.08500000000004 0.60355000000000014 0.73126169751344294 161.00000000000003 0.70380000000000009
decision_type=2 2 2 2 2 2 2 2 2 2 2 2 2 2 2 2 2 2 2 2 2 2 2 2 2 2 2 2 2 2
left_child=1 10 4 12 5 -2 16 8 -6 13 15 -12 -3 -5 24 18 29 -17 19 -1 -15 -9 26 25 -13 -16 27 -8 -7 -4
right_child=2 3 6 9 7 28 22 21 -10 -11 11 14 -14 20 23 17 -18 -19 -20 -21 -22 -23 -24 -25 -26 -27 -28 -29 -30 -31
leaf_value=-0.06130241253686685 -0.056770692514869672 -0.069034465230078487 -0.020762520873132899 -0.058639379598888403 -0.050336424136262548 0.0059700374178683719 0.044492426998069934 -0.0078242457739032701 0.034190792448432435 0.040916019309910096 -0.068721431901664673 -0.069980618867787822 0.062585171854509389 0.05631595176265905 -0.063845547436793201 -0.0545678585266548 0.056318557949855352 0.050347354420329629 -0.06951473099280224 -0.0024551278811449882 -0.032648723861439237 0.054367105521897385 0.070265457844287921 0.040209691767995569 0.014523735964407515 0.024087336338655316 0.069749058057764921 0.0623377916639829 0.06247527878933961 0.031600741871811416
leaf_weight=27.373548714909703 18.808665859978646 23.144590432522822 4.5915118358097962 9.0000820378772932 10.326365627814083 12.974402431864293 81.385072943288833 4.4569575842469922 26.651409955695271 42.094035193324089 82.216706421691924 5.7698910590261239 2.0609174724668256 5.6973769450560194 3.0620555179193643 4.1844568429514757 47.828661849722266 2.7884598635137081 681.90047224145383 9.1464653685688955 3.3004467152059078 85.825016773305833 309.5216009914875 14.302204897627233 2.9274445557966828 3.9314245097339153 117.71019726991653 208.23328952025622 5.5063860267400733 39.665308849420398
leaf_count=3184 1978 3185 209 499 796 461 403 72 326 167 3659 315 7 43 149 443 172 14 89483 98 99 446 227 85 55 26 72 305 27 459
internal_value=5.93624e-10 -0.0593658 0.0562811 -0.000716699 0.0265958 -0.0173323 0.0623195 0.0394675 0.0105858 0.0234251 -0.0653384 -0.0493453 -0.0582726 -0.0174832 0.00376831 -0.0678123 0.0418281 -0.0126124 -0.0683481 -0.0465641 0.0236833 0.0512969 0.0649518 0.0222715 -0.0415372 -0.0144136 0.060914 0.0573231 0.0228059 0.0261682
internal_weight=1896.39 922.901 973.485 85.2974 164.549 37.2895 808.936 127.26 36.9778 60.0919 837.603 112.21 25.2055 17.9979 29.993 725.393 92.0855 6.97292 718.42 36.52 8.99782 90.282 716.85 21.2957 8.69734 6.99348 407.329 289.618 18.4808 44.2568
internal_count=107464 101511 5953 4000 4106 2466 1847 1640 1122 808 97511 4289 3192 641 630 93222 840 457 92765 3282 142 518 1007 260 370 175 780 708 488 668
is_linear=0
shrinkage=0.05


Tree=7
num_leaves=31
num_cat=0
split_feature=1 19 1 10 19 11 2 4 11 17 1 6 19 2 2 4 11 10 1 4 11 3 10 18 3 0 3 1 11 19
split_gain=2335.2 116.247 76.9729 42.5549 26.2517 28.4919 37.2559 25.2388 14.2904 12.3567 40.5028 11.8055 11.5762 11.1685 7.77423 6.94678 6.10389 6.01452 6.9597 7.66654 5.9613 5.84263 7.6503 5.76872 5.58498 5.51506 6.17867 5.13709 6.59136 6.65347
threshold=32.500000000000007 0.17764628533859306 138.50000000000003 0.60355000000000014 1.096683487036715 0.91595000000000015 73.500000000000014 0.36475000000000007 -0.3793999999999999 1.0000000180025095e-35 11.500000000000002 79.500000000000014 2.1876072041166386 64.500000000000014 29.500000000000004 0.072150000000000006 0.9829500000000001 0.91595000000000015 99.500000000000014 1.3001500000000001 1.0000000180025095e-35 9.1550000000000029 0.9829500000000001 2.043914940600454 179.17500000000004 7.5000000000000009 23.675000000000004 211.50000000000003 0.60355000000000014 1.4478424902648215
decision_type=2 2 2 2 2 2 2 2 2 2 2 2 2 2 2 2 2 2 2 2 2 2 2 2 2 2 2 2 2 2
left_child=1 9 4 13 5 6 7 20 12 14 15 -10 -5 -3 21 -11 -16 18 19 -9 -2 22 -1 -17 -7 26 -13 28 29 -4
right_child=2 3 27 8 -6 24 -8 17 11 10 -12 25 -14 -15 16 23 -18 -19 -20 -21 -22 -23 -24 -25 -26 -27 -28 -29 -30 -31
leaf_value=-0.054985391410030372 -0.058907906332999332 -0.066309624335971373 0.038863243191754257 -0.064265519861826312 0.054219409016260579 0.021596684637709126 0.059154308638377874 -0.022266380901867586 -0.076075116226057948 -0.066090145203909142 0.019809294791991588 0.032420019961055431 0.069712415857837287 0.056251383164151098 -0.051107672525604886 0.022637111421900741 0.044769007156238473 0.038799676820851219 0.025546052466951907 0.047886839515600063 -0.015167997427263278 -0.067115566704309057 0.015746546116848382 -0.055894670204175691 0.059333465568931182 0.048511380518997477 -0.040761548943613349 0.065779390124552736 0.067872065819173363 0.062829477412685658
leaf_weight=31.370159698883072 20.337435148656368 22.928617146797482 69.248539573512971 7.3785754358395916 87.33083647210151 12.696678437292574 27.742540152277797 26.351609356235716 2.4020020896568886 80.482461543055251 18.554933798499405 9.9257612489163858 2.0630733072757721 2.022777058184146 4.1568832979537538 4.228157193399964 2.7637515738606453 15.322876384481786 20.727932287845761 4.569791483692824 12.625787340104578 673.9243770702742 4.3533644266426554 5.2322082882747054 43.044771570712328 33.622404773719609 4.0656376257538787 499.09343214984983 74.216231971979141 49.774979010224342
leaf_count=3255 2073 3185 403 480 287 137 135 1275 61 3708 241 67 4 7 443 94 14 71 399 33 473 89483 27 246 111 122 74 455 40 61
internal_value=-7.45236e-10 -0.0574581 0.0542598 -0.00157047 0.0316561 0.0209131 0.00789223 -0.00633835 0.0214278 -0.0631757 -0.0474505 0.032078 -0.0349903 -0.0563738 -0.0655567 -0.061326 -0.0128194 0.01129 0.00312869 -0.0118986 -0.0421544 -0.066071 -0.0463658 -0.0207962 0.0507379 0.0375341 0.0111548 0.0630994 0.0561777 0.0488858
internal_weight=1872.56 909.475 963.083 84.4088 270.75 183.419 127.678 99.9354 59.4575 825.066 108.498 50.0158 9.44165 24.9514 716.569 89.9428 6.92063 66.9722 51.6493 30.9214 32.9632 709.648 35.7235 9.46037 55.7415 47.6138 13.9914 692.333 193.24 119.024
internal_count=107464 101511 5953 4000 4994 4707 4459 4324 808 97511 4289 324 484 3192 93222 4048 457 1778 1707 1308 2546 92765 3282 340 248 263 141 959 504 464
is_linear=0
shrinkage=0.05


Tree=8
num_leaves=31
num_cat=0
split_feature=1 19 1 10 19 11 10 2 4 0 17 4 1 2 2 2 10 3 10 10 4 2 19 10 11 3 1 11 19 2
split_gain=2146.93 105.685 70.3827 38.3996 22.1352 26.3417 15.9467 13.022 20.2914 12.1131 11.2512 36.0009 9.9452 9.57517 8.379 8.0782 7.05557 6.35552 7.51486 6.24302 5.02625 5.60068 4.84654 4.81967 4.78865 4.62562 4.33128 5.67048 7.06809 3.63195
threshold=32.500000000000007 0.17764628533859306 138.50000000000003 0.60355000000000014 1.096683487036715 -1.0000000180025095e-35 -1.0000000180025095e-35 94.500000000000014 0.45025000000000004 7.5000000000000009 1.0000000180025095e-35 0.058750000000000004 69.500000000000014 64.500000000000014 1.0000000180025095e-35 29.500000000000004 0.91595000000000015 9.1550000000000029 0.9829500000000001 -0.98294999999999988 1.0593500000000002 28.500000000000004 0.075140918629489892 0.60355000000000014 0.9829500000000001 23.675000000000004 213.50000000000003 0.60355000000000014 0.49238051258369903 3.5000000000000004
decision_type=2 2 2 2 2 2 2 2 2 2 2 2 2 2 2 2 2 2 2 2 2 2 2 2 2 2 2 2 2 2
left_child=1 10 4 13 5 7 12 8 -2 16 15 -12 20 -3 -13 17 -5 18 -1 -4 21 -7 23 -16 -17 -18 27 28 -21 -6
right_child=2 3 19 9 29 6 -8 -9 -10 -11 11 14 -14 -15 22 24 25 -19 -20 26 -22 -23 -24 -25 -26 -27 -28 -29 -30 -31
leaf_value=-0.052348491484682846 -0.052513123783313312 -0.06389155491340047 0.02894837747914103 -0.066676744667860874 0.017892585180432036 -0.035373386301731147 0.050415206770813341 0.043803104753136604 0.010028168005589968 0.035368230890038883 -0.063964818904141449 -0.041169643072913063 0.032721772964094169 0.052157640136892586 -0.0078261924696950615 -0.043384221558513042 0.022607673482476789 -0.065145759618011501 0.015904432627352229 0.025877396745429371 0.05790527198005422 0.035427434456161484 -0.022006492540816491 0.052221593460845372 0.041266738488999311 -0.040337446342194869 0.064105161879871836 0.065836999660555631 0.055121322183100632 0.054280824209854028
leaf_weight=30.866331489058211 21.55416898522526 22.519518391694877 14.989251442253588 4.6554849017411479 7.4916968774050465 14.879402420483535 68.653469527605921 11.453730051871387 32.562762076966465 40.034186621196568 76.60576168843545 8.2562540881335753 26.870552932843566 1.9297876246273507 4.9348503565415767 4.2427411032840601 10.027900112792848 661.00372727960348 4.6390337981283656 27.221162175294012 2.1998390750959507 3.438747137784957 5.4701468842104068 10.350770857185124 2.7558230608701706 4.1169363474473366 477.93059597164392 74.606603592634201 85.74812925234437 80.987987439148128
leaf_count=3255 2232 3185 40 309 64 848 247 103 929 335 3659 370 302 7 114 443 80 89483 27 288 13 33 100 46 14 84 428 41 162 223
internal_value=-9.71027e-11 -0.0556969 0.052288 -0.00206507 0.0306925 0.0207016 0.0350158 -0.00463047 -0.0148813 0.0198211 -0.0612172 -0.0460003 0.0127061 -0.0547318 0.00143481 -0.0635017 -0.0132855 -0.0640388 -0.0434308 0.0608594 -0.0135065 -0.0220824 0.0183821 0.0328356 -0.0100512 0.00428713 0.0615781 0.0551395 0.0480747 0.0511998
internal_weight=1843 892.409 950.588 83.2838 270.092 181.613 116.042 65.5707 54.1169 58.8345 809.125 105.618 47.3885 24.4493 29.012 703.508 18.8003 696.509 35.5054 680.496 20.518 18.3181 20.7558 15.2856 6.99856 14.1448 665.506 187.576 112.969 88.4797
internal_count=107464 101511 5953 4000 4994 4707 1443 3264 3161 808 97511 4289 1196 3192 630 93222 473 92765 3282 959 894 881 260 160 457 164 919 491 450 287
is_linear=0
shrinkage=0.05


Tree=9
num_leaves=31
num_cat=0
split_feature=1 19 1 10 9 19 11 0 17 4 2 4 1 10 2 2 2 3 10 10 1 1 3 9 6 2 4 5 6 11
split_gain=1989.53 94.1869 70.579 33.5018 21.2844 12.1331 16.6778 10.635 10.202 32.0065 9.39457 11.7567 9.38394 9.16215 8.61026 7.87923 7.65637 6.4149 8.55376 5.96068 5.77995 4.94887 4.50174 4.42418 4.41487 4.19905 4.15022 4.07017 3.97977 3.95793
threshold=32.500000000000007 0.17764628533859306 138.50000000000003 0.60355000000000014 0.00125 1.135394052075932 -1.0000000180025095e-35 7.5000000000000009 1.0000000180025095e-35 0.05705000000000001 112.50000000000001 0.47650000000000009 56.500000000000007 -1.0000000180025095e-35 64.500000000000014 1.0000000180025095e-35 29.500000000000004 9.1550000000000029 0.91595000000000015 0.91595000000000015 47.500000000000007 306.50000000000006 23.675000000000004 0.00125 79.500000000000014 15.500000000000002 0.31760000000000005 9.0400000000000009 82.500000000000014 0.9829500000000001
decision_type=2 2 2 2 2 2 2 2 2 2 2 2 2 2 2 2 2 2 2 2 2 2 2 2 2 2 2 2 2 2
left_child=1 8 4 14 12 6 10 19 16 -10 11 25 -2 20 -3 -11 17 18 -1 -5 -8 23 -21 -4 -17 -6 -15 -22 -26 -18
right_child=2 3 21 7 5 -7 13 -9 9 15 -12 -13 -14 26 -16 24 29 -19 -20 22 27 -23 -24 -25 28 -27 -28 -29 -30 -31
leaf_value=-0.05570608861410873 -0.029578433072928723 -0.062095582953528877 0.042385239164883619 -0.064534949015128809 -0.063509127204403021 0.051704770668253797 -0.029141202880122726 0.031528888132460429 -0.062231499216134967 -0.040918783081960342 0.045050428264934772 0.014683003756354963 0.015755782454506099 0.060250428017644991 0.049425342292800399 -0.040418956389864265 -0.039770812697550652 -0.063433724618969498 0.0014438535706798332 0.018709069435334218 0.040975119901042995 0.065089200754515811 -0.042830290081127168 0.057974780955924857 0.067734981040357897 -0.011254727630981487 0.030334974147725124 0.0018679220539515541 0.01260092325640131 0.037195088652632845
leaf_weight=26.238948791055009 17.907936204690486 22.105138173094023 51.724464382976294 4.4486097875051209 8.937325668986885 76.601491065695882 5.1998874465934923 39.667201808653772 73.698789078276604 8.2679754812270421 10.887737911194561 23.894216113258153 31.482769324444234 41.557763459160924 1.8778154402971257 2.8691785670816925 4.297957937931641 646.94041389669292 8.7243071403354389 10.624236246570943 19.998302155174319 237.76219835877419 4.1258260952308783 378.78808157891035 4.3809052295982864 6.7467981935478738 16.079401452094316 9.9704346987418813 12.943536207079886 2.7322137989103794
leaf_count=3184 1103 3185 170 309 1124 213 292 335 3639 384 67 565 702 68 7 81 443 89483 98 80 190 168 84 621 5 354 65 251 180 14
internal_value=-2.37602e-10 -0.0542727 0.0505912 -0.00355091 0.0289789 0.0356416 0.0270532 0.0167437 -0.0595846 -0.0448396 0.00391948 -0.00739536 -0.000681364 0.0396329 -0.0533637 0.000195222 -0.0617711 -0.0623063 -0.0414456 -0.0138047 0.019521 0.0592994 0.00149554 0.0561018 0.0170287 -0.041031 0.0519047 0.0279644 0.0265429 -0.0098587
internal_weight=1811.48 873.943 937.539 82.8488 269.264 219.873 143.272 58.8659 791.094 102.16 50.4661 39.5783 49.3907 92.8058 23.983 28.4616 688.934 681.904 34.9633 19.1987 35.1686 668.275 14.7501 430.513 20.1936 15.6841 57.6372 29.9687 17.3244 7.03017
internal_count=107464 101511 5953 4000 4994 3189 2976 808 97511 4289 2110 2043 1805 866 3192 650 93222 92765 3282 473 733 959 164 791 266 1478 133 441 185 457
is_linear=0
shrinkage=0.05


Tree=10
num_leaves=31
num_cat=0
split_feature=1 19 1 10 19 11 2 4 17 1 0 2 9 2 18 6 10 3 10 0 3 1 3 11 11 19 11 1 5 4
split_gain=1850.88 84.8335 70.2656 29.4978 23.8791 24.7605 31.4096 18.8657 10.1498 29.8667 9.46155 7.7337 6.46265 6.1471 5.53892 8.04716 5.50921 5.40628 10.449 5.08917 5.66775 4.43842 4.85021 4.32611 4.19678 4.02864 10.8027 4.00412 4.14562 5.48568
threshold=32.500000000000007 0.17764628533859306 151.50000000000003 0.60355000000000014 1.0032396389217981 0.91595000000000015 73.500000000000014 0.34805000000000003 1.0000000180025095e-35 11.500000000000002 7.5000000000000009 64.500000000000014 0.032000000000000008 29.500000000000004 1.8009340385621535 268.50000000000006 0.91595000000000015 9.1550000000000029 0.91595000000000015 37.500000000000007 234.16500000000002 90.500000000000014 52.805000000000007 1.0000000180025095e-35 0.9829500000000001 0.27185200138226934 0.37940000000000002 236.50000000000003 11.840000000000002 1.7499000000000002
decision_type=2 2 2 2 2 2 2 2 2 2 2 2 2 2 2 2 2 2 2 2 2 2 2 2 2 2 2 2 2 2
left_child=1 8 4 11 5 6 7 23 13 12 14 -3 -10 17 15 -5 -11 18 -1 20 -7 22 -9 -2 -15 26 -12 28 -4 -30
right_child=2 3 27 10 -6 19 -8 21 9 16 25 -13 -14 24 -16 -17 -18 -19 -20 -21 -22 -23 -24 -25 -26 -27 -28 -29 29 -31
leaf_value=-0.058330871184033788 -0.053692912273123651 -0.060355995687490574 0.055947548617590187 -0.054923307538853529 0.047869495574914225 -0.021133651532735866 0.054082952412433917 0.027987442311599744 -0.058040824833380113 0.024941685456543673 -0.072659940119313413 0.04658249784886527 0.038603491844531747 -0.045409657412774529 -0.041470058827344808 0.044660277325779339 -0.074402860059615203 -0.061997898214564112 0.0040806815357185859 0.053083627306785779 0.052080497332507691 0.018558230581876538 -0.016639919331024523 -0.015123086449358718 0.034566215339976496 0.03761876321767281 0.037705700243066763 0.061389252654225124 0.020159628983962421 0.061816735482029442
leaf_weight=24.971064872574061 18.842580909840766 21.648321065353233 178.24670532718301 2.9869309440255183 107.65822732076049 5.4064801782369596 27.643952286802232 8.0178125435486418 80.293965109856799 15.849417653866112 3.3292631902731937 1.8338935151696194 1.7678959108889092 4.07875180710107 9.561089320573954 6.3232311466708779 1.5302772382274277 630.64621829218231 9.1687116455286723 46.525219975039363 5.1722540706396103 41.843368840403855 25.29952308954671 11.837426805868743 2.7438578344881535 29.435713922604918 6.6377121917903423 414.66799011826515 19.947490502148867 13.088563293218611
leaf_count=3184 2005 3185 326 79 346 93 135 150 4022 174 114 7 26 443 362 32 67 89483 98 138 20 684 1126 443 14 207 14 365 113 9
internal_value=-4.73841e-11 -0.0531217 0.0490182 -0.00469227 0.0290453 0.0184121 0.00662466 -0.00577071 -0.0582568 -0.0433483 0.0143728 -0.0520044 -0.0559588 -0.0604642 -0.0147396 0.0127114 0.0161944 -0.0609488 -0.0415694 0.045966 0.0146629 0.0077162 -0.00590035 -0.0388113 -0.0132457 0.0283156 0.000840327 0.0585347 0.0529323 0.0366638
internal_weight=1777 852.806 924.198 81.7562 298.247 190.589 133.485 105.841 771.05 99.4416 58.2739 23.4822 82.0619 671.609 18.8713 9.31016 17.3797 664.786 34.1398 57.104 10.5787 75.1607 33.3173 30.68 6.82261 39.4027 9.96698 625.951 211.283 33.0361
internal_count=107464 101511 5953 4000 5140 4794 4543 4408 97511 4289 808 3192 4048 93222 473 111 241 92765 3282 251 113 1960 1276 2448 457 335 128 813 448 122
is_linear=0
shrinkage=0.05


Tree=11
num_leaves=31
num_cat=0
split_feature=1 19 1 10 9 19 11 11 19 17 4 10 1 2 4 1 2 2 9 2 3 10 4 11 3 2 10 3 11 1
split_gain=1724.41 77.4074 66.5785 27.0831 21.4006 12.0313 15.9129 10.4362 10.3204 9.86851 28.3403 9.08154 7.4082 7.23824 10.3589 7.15274 6.57418 6.50613 5.86309 5.78341 4.82137 7.64459 4.81067 10.2203 14.2318 4.51446 4.18901 4.35554 3.83531 3.70466
threshold=32.500000000000007 0.17764628533859306 151.50000000000003 0.60355000000000014 0.00125 1.0520167240531235 -1.0000000180025095e-35 -1.0000000180025095e-35 0.55193568859741915 1.0000000180025095e-35 0.056250000000000008 -0.3793999999999999 66.500000000000014 15.500000000000002 0.47650000000000009 54.500000000000007 64.500000000000014 1.0000000180025095e-35 0.010350000000000002 29.500000000000004 9.1550000000000029 0.91595000000000015 0.23705000000000001 0.37940000000000002 23.675000000000004 17.500000000000004 -1.0000000180025095e-35 126.605 0.9829500000000001 37.500000000000007
decision_type=2 2 2 2 2 2 2 2 2 2 2 2 2 2 2 2 2 2 2 2 2 2 2 2 2 2 2 2 2 2
left_child=1 9 4 16 15 6 13 8 -5 19 -11 12 -8 14 -6 -2 -3 -12 -10 20 21 -1 23 24 -9 26 -4 -28 -21 -16
right_child=2 3 25 7 5 -7 11 22 18 10 17 -13 -14 -15 29 -17 -18 -19 -20 28 -22 -23 -24 -25 -26 -27 27 -29 -30 -31
leaf_value=-0.055914602650902603 -0.02773373197448047 -0.058738493592123645 0.053965136716492501 -0.056936700389266987 -0.05991106011923622 0.048187904651877181 -0.030077955834584575 0.039155651122563306 -0.016016970746673142 -0.059295249463506339 -0.037503774091580511 0.0476650559396984 0.029018760733642398 0.021777398413401979 0.047793766148998572 0.011836168503257345 0.042028228938227732 0.015686977870971206 0.06594107603290085 -0.044321242025068597 -0.060715032386610093 -0.0026824814843821191 0.053412227549777369 0.043478656960848648 -0.072195828443976831 0.058901665951109128 0.050998957398182415 0.012754441041775498 0.032557572111295792 -0.0059346025753235264
leaf_weight=24.662721147062257 16.807777639944106 21.080055466154594 69.878257092088461 8.7411500085145253 8.6479904586449283 95.615084191784263 7.1936781653203097 5.4515992105007189 5.0222303317859751 69.350027968874201 8.0851594563573617 67.040602084249258 20.177720298059285 26.998217322863638 4.2124567762948599 35.630109192337841 1.7532519213855255 19.896324526518583 3.8587668277323246 3.9942040508612981 613.68102018232457 9.2830668501555902 12.605314098298548 14.677462991327046 6.0584086151793599 513.14648476243019 14.655664011836054 15.130485732108353 2.7318555600941181 13.459606118965892
leaf_count=3184 1043 3185 102 499 1128 261 444 19 128 3629 389 211 216 558 41 811 7 271 14 443 89483 98 28 34 86 575 29 107 14 427
internal_value=-3.98411e-10 -0.0520567 0.0476072 -0.0050563 0.0281254 0.0343686 0.0254244 0.0135393 -0.0183679 -0.0570118 -0.0421573 0.0377564 0.0134871 0.00358775 -0.0150706 -0.000847067 -0.0510011 0.000317682 0.0195936 -0.0592213 -0.0597004 -0.0413574 0.0280337 0.0158177 -0.0194553 0.0570104 0.0472726 0.0315719 -0.0130962 0.00687253
internal_weight=1739.53 830.933 908.594 79.2482 295.783 243.345 147.73 56.4149 17.6221 751.684 97.3315 94.412 27.3714 53.3183 26.3201 52.4379 22.8333 27.9815 8.881 654.353 647.627 33.9458 38.7928 26.1875 11.51 612.811 99.6644 29.7861 6.72606 17.6721
internal_count=107464 101511 5953 4000 5140 3286 3025 808 641 97511 4289 871 660 2154 1596 1854 3192 660 142 93222 92765 3282 167 139 105 813 238 136 457 468
is_linear=0
shrinkage=0.05


Tree=12
num_leaves=31
num_cat=0
split_feature=1 19 1 10 19 11 10 2 4 17 4 11 19 6 6 11 4 1 1 2 4 5 2 2 3 10 5 6 6 6
split_gain=1600.18 72.7482 66.6826 25.1357 20.2101 19.5971 12.2294 10.4725 12.0007 9.57881 26.2241 8.8637 9.81014 7.93308 7.25244 6.53692 7.02998 6.39455 6.34573 6.02877 5.98499 9.847 5.34386 4.99819 5.01 7.54606 4.46725 11.6836 5.22781 4.87621
threshold=32.500000000000007 0.17764628533859306 155.50000000000003 0.60355000000000014 0.90195932354913222 -1.0000000180025095e-35 -0.60354999999999992 15.500000000000002 0.47650000000000009 1.0000000180025095e-35 0.05705000000000001 -0.3793999999999999 2.1876072041166386 79.500000000000014 566.50000000000011 0.91595000000000015 0.20805000000000004 58.500000000000007 11.500000000000002 18.500000000000004 0.34805000000000003 6.6050000000000013 7.5000000000000009 29.500000000000004 9.1550000000000029 0.91595000000000015 5.370000000000001 268.50000000000006 275.50000000000006 1280.5000000000002
decision_type=2 2 2 2 2 2 2 2 2 2 2 2 2 2 2 2 2 2 2 2 2 2 2 2 2 2 2 2 2 2
left_child=1 9 4 19 5 7 17 8 -2 23 -11 12 -5 -13 15 -8 -17 -7 -12 -3 21 26 -18 24 25 -1 27 -15 -29 -30
right_child=2 3 -4 11 -6 6 14 -9 -10 10 18 13 -14 20 -16 16 22 -19 -20 -21 -22 -23 -24 -25 -26 -27 -28 28 29 -31
leaf_value=-0.054544294677097108 -0.054733425584670314 -0.058038978556071111 0.055959971799060086 -0.058799129155079732 0.043325610606337911 -0.046612632671017853 -0.0070442117264860882 0.018311598344892595 0.0015508864025648092 -0.057876157663136252 -0.027382879184780846 -0.069371795868400254 0.060181340852968314 -0.072450053153314972 0.051469474430183515 0.050965095935571338 -0.04970129076593905 0.012463596911226733 0.021021975453248305 0.032376547755389444 0.059256255493097314 -0.062424683259435676 0.029301034115784608 -0.014742160091690996 -0.059593753784526207 -0.0017582607734460379 0.051640531808612923 0.072465510366694991 -0.024365085913322336 0.045783348841404087
leaf_weight=24.128491908777505 15.95135008683428 20.186960435705263 589.30437548924237 7.2948221908882243 117.37263141851872 5.8997207805514362 12.673475949093698 28.975549594033509 23.309703104197979 67.277434878516942 11.957510994281622 2.2393491277471176 2.2720591500401497 3.4130230313167003 47.32154231145978 21.796852724626664 3.5143382884561998 20.487074299715459 15.6098276656121 2.0289731458760789 10.867155520245431 3.5321019049733868 5.4754864182323217 6.583835302386432 595.35735280252993 9.4113772828131896 10.708140471950175 4.8920656442642203 5.1602658191695792 4.764873094856739
leaf_count=3184 1938 3150 787 480 416 484 279 654 693 3639 495 61 4 74 150 70 57 379 155 42 26 66 46 457 89483 98 28 4 57 8
internal_value=-6.85572e-10 -0.0509848 0.0461613 -0.00487845 0.02709 0.0168118 0.0292172 -0.00448927 -0.0213168 -0.0558686 -0.0410464 0.0132117 -0.0305422 0.0223959 0.037926 0.0231793 0.0356209 -0.000745027 2.60575e-05 -0.0497814 0.0271377 0.0163884 -0.00158287 -0.0580808 -0.0585345 -0.0397324 0.026008 0.0109518 0.0301627 0.00931186
internal_weight=1699.77 807.686 892.082 77.3598 302.778 185.405 117.168 68.2366 39.2611 730.326 94.8448 55.1439 9.56688 45.577 90.7817 43.4602 30.7867 26.3868 27.5673 22.2159 43.3376 32.4705 8.98982 635.481 628.897 33.5399 28.9384 18.2302 14.8172 9.92514
internal_count=107464 101511 5953 4000 5166 4750 1465 3285 2631 97511 4289 808 484 324 602 452 173 863 650 3192 263 237 103 93222 92765 3282 171 143 69 65
is_linear=0
shrinkage=0.05


Tree=13
num_leaves=31
num_cat=0
split_feature=1 19 1 10 19 11 10 11 19 17 4 2 4 2 1 2 2 1 6 18 3 10 2 10 3 18 6 11 9 6
split_gain=1484.11 68.9354 65.1525 24.3927 18.5082 16.8631 11.7506 9.40372 9.20739 9.0399 23.7752 8.08851 13.7367 6.23674 5.86275 5.63517 5.62645 5.49868 5.43377 5.21695 4.89692 6.79129 4.61655 4.12128 4.08522 4.03716 3.85337 3.49127 3.4003 3.36822
threshold=32.500000000000007 0.17764628533859306 155.50000000000003 0.60355000000000014 0.96550588535248383 -1.0000000180025095e-35 -0.60354999999999992 -1.0000000180025095e-35 0.53601356743814854 1.0000000180025095e-35 0.05705000000000001 23.500000000000004 0.40515000000000007 29.500000000000004 59.500000000000007 64.500000000000014 1.0000000180025095e-35 306.50000000000006 100.50000000000001 3.0693432584303633 9.1550000000000029 0.9829500000000001 3.5000000000000004 0.60355000000000014 197.08500000000004 3.9802005953081712 711.50000000000011 0.9829500000000001 0.00125 268.50000000000006
decision_type=2 2 2 2 2 2 2 2 2 2 2 2 2 2 2 2 2 2 2 2 2 2 2 2 2 2 2 2 2 2
left_child=1 9 4 15 5 11 14 8 -5 13 -11 12 -2 20 -7 -3 -12 28 -8 -10 21 -1 -6 24 -18 -20 -24 -15 -4 -9
right_child=2 3 17 7 22 6 18 29 19 10 16 -13 -14 27 -16 -17 23 -19 25 -21 -22 -23 26 -25 -26 -27 -28 -29 -30 -31
leaf_value=-0.04855247860610952 -0.055957227275950275 -0.056243204758761323 0.037044791454416616 -0.054256411486215184 0.0053379915675008105 -0.044858879586839068 0.0003303718220554023 0.0080267814190577973 -0.052495097895558888 -0.05663640095339148 -0.037001863606208309 0.022096679246343683 0.0024951335765284939 -0.038601502551619406 0.011318013468727031 0.039598447705990858 -0.05742340217710297 0.060672844970015807 0.0017607506143490878 0.037378570395655154 -0.058617034794157807 0.013914850931741073 0.048152337863540347 0.030767447873702065 0.017887886449134471 0.044092984892807108 0.017374299196377358 0.034554554934377722 0.052416884824860857 0.040890304965122512
leaf_weight=28.124957239022478 14.225298109464346 19.857422967208553 40.61849763803184 8.1515980083495396 8.0234674001112563 5.9742064648307887 9.2514081392437202 11.881894733756779 2.0568486740812642 65.474522192263976 7.8225008659064796 21.657471724320203 34.2541678911075 4.0834998444188377 20.864387532696128 1.6620623320341099 3.3337968569248941 223.24909865856171 6.1028585648164144 7.5114530008286238 575.73514854069799 5.1472636349499217 91.180065557360649 12.320690380409358 3.9155962616205215 73.020894900429994 11.446082986891268 2.7153516933321953 314.62578855641186 22.677198382094502
leaf_count=3255 1833 3185 119 490 81 495 158 95 86 3639 384 409 1067 443 376 7 152 168 105 65 89483 27 238 87 27 344 60 14 500 72
internal_value=2.65766e-11 -0.0500254 0.0447613 -0.00403616 0.0256821 0.0160219 0.0277889 0.0144067 -0.015208 -0.0548146 -0.0402727 -0.00330755 -0.0146565 -0.0570075 -0.00118683 -0.0488409 -0.0011597 0.0545236 0.0365885 0.0180589 -0.0575392 -0.0388887 0.041864 0.013167 -0.0167457 0.0408279 0.0447196 -0.00938415 0.0506592 0.0295914
internal_weight=1656.97 782.472 874.494 73.7985 296 185.351 115.214 52.279 17.7199 708.673 92.8671 70.1369 48.4795 615.806 26.8386 21.5195 27.3926 578.493 88.3752 9.5683 609.007 33.2722 110.65 19.5701 7.24939 79.1238 102.626 6.79885 355.244 34.5591
internal_count=107464 101511 5953 4000 5166 4787 1478 808 641 97511 4289 3309 2900 93222 871 3192 650 787 607 151 92765 3282 379 266 179 449 298 457 619 167
is_linear=0
shrinkage=0.05


Tree=14
num_leaves=31
num_cat=0
split_feature=1 1 19 10 19 11 10 2 17 1 1 11 19 3 0 1 9 2 11 19 3 10 9 2 0 10 10 18 9 6
split_gain=1385.45 65.4129 62.5309 21.9589 18.5296 18.3303 11.2674 8.74018 8.61607 21.9024 8.35317 8.03799 8.11889 7.60303 8.25813 5.96555 5.85123 5.63755 5.6204 10.9099 5.24642 6.98876 4.76476 4.72888 4.42133 4.2603 4.38192 4.16753 3.8126 3.6469
threshold=32.500000000000007 151.50000000000003 0.17764628533859306 0.60355000000000014 1.135394052075932 -1.0000000180025095e-35 -1.0000000180025095e-35 7.5000000000000009 1.0000000180025095e-35 11.500000000000002 83.500000000000014 -1.0000000180025095e-35 0.55193568859741915 67.485000000000014 -60.499999999999993 232.50000000000003 0.032000000000000008 29.500000000000004 0.37940000000000002 0.65619304374240595 9.1550000000000029 0.91595000000000015 0.010350000000000002 64.500000000000014 83.500000000000014 0.91595000000000015 0.60355000000000014 4.6854051643811685 0.0087500000000000026 601.50000000000011
decision_type=2 2 2 2 2 2 2 2 2 2 2 2 2 2 2 2 2 2 2 2 2 2 2 2 2 2 2 2 2 2
left_child=2 4 8 23 5 10 7 -7 17 16 13 12 -5 28 -15 18 -10 20 19 -3 21 -1 -14 -4 -8 26 -11 -9 -2 -21
right_child=1 15 3 11 -6 6 24 27 9 25 -12 -13 22 14 -16 -17 -18 -19 -20 29 -22 -23 -24 -25 -26 -27 -28 -29 -30 -31
leaf_value=-0.052010188985391094 -0.0062867407129640982 0.01680861808144344 -0.055136801116116088 -0.051295910665700453 0.042489057437306819 -0.016455272390302807 0.0459798971258365 0.0019701478538589993 -0.053394486311572481 -0.0055255912188386892 0.014644029188848374 0.026746869835152801 -0.014629116334640983 0.026152933493833654 -0.044825013734164039 0.056866233564112668 0.039480540342863878 -0.010401479324650183 0.057885453805327218 0.053718303396839522 -0.057753304199594881 -0.0010282172670207264 0.058195784046448866 0.035620321727706315 -0.00051778971609543355 -0.069365838555278003 0.048434228383548564 0.037266743943266643 0.052836819932568502 0.025427961719573323
leaf_weight=22.938737773569301 7.8716239589266461 36.519067014567554 19.191391185391698 8.1785445143468696 91.367984505370259 19.106196376495063 57.25908107124269 12.725746924523262 71.687182600144297 7.8331679366528988 32.272731825243682 33.973979600705206 5.121148841455577 4.9202562859281924 24.522831986192614 383.54628571867943 1.7369473483413447 6.6743632438592604 65.297149106860161 73.84911123663187 556.47603357979096 9.508591450750826 4.000717050395906 1.5512974113225926 5.6136925518512717 1.4491071254014976 7.2397478055208921 24.392736196517944 4.1718289041891694 13.469412751495836
leaf_count=3184 235 256 3185 499 290 720 211 334 4022 129 701 167 128 55 2330 372 26 457 46 108 89483 98 14 7 53 67 45 177 34 31
internal_value=-6.07603e-11 0.0435505 -0.0492616 -0.00494071 0.0239413 0.015154 0.027285 0.0110221 -0.0539176 -0.0394933 -0.00443354 0.0126199 -0.0151221 -0.0192742 -0.0329638 0.0532827 -0.0511974 -0.0560959 0.0460155 0.0397568 -0.0566137 -0.0370701 0.0173108 -0.0483493 0.0418283 0.0125197 0.0203921 0.0251656 0.0141935 0.0493543
internal_weight=1614.47 856.906 757.561 72.0171 284.225 192.857 119.097 56.2247 685.544 89.9462 73.7593 51.2744 17.3004 41.4865 29.4431 572.681 73.4241 595.598 189.135 123.838 588.923 32.4473 9.12187 20.7427 62.8728 16.522 15.0729 37.1185 12.0435 87.3185
internal_count=107464 5953 101511 4000 5140 4850 1495 1231 97511 4289 3355 808 641 2654 2385 813 4048 93222 441 395 92765 3282 142 3192 264 241 174 511 269 139
is_linear=0
shrinkage=0.05


Tree=15
num_leaves=31
num_cat=0
split_feature=1 1 19 10 19 2 11 4 0 17 4 2 1 3 10 2 1 3 0 3 2 5 6 18 11 9 3 11 6 11
split_gain=1299.18 64.3778 57.2694 19.3428 17.7431 16.2548 24.73 13.6603 8.33706 8.32071 20.5492 6.39275 5.8275 5.66869 7.36393 4.66072 4.53001 4.02197 3.93939 3.87301 3.80399 3.74163 4.84011 3.43984 3.36173 7.57215 3.34025 3.26877 3.14539 3.07401
threshold=32.500000000000007 151.50000000000003 0.17764628533859306 0.60355000000000014 1.0520167240531235 73.500000000000014 0.91595000000000015 0.34805000000000003 7.5000000000000009 1.0000000180025095e-35 0.055450000000000006 29.500000000000004 326.50000000000006 9.1550000000000029 0.91595000000000015 18.500000000000004 11.500000000000002 278.66500000000002 37.500000000000007 234.16500000000002 3.5000000000000004 2.8000000000000003 488.50000000000006 2.043914940600454 -1.0000000180025095e-35 0.010350000000000002 68.545000000000016 0.9829500000000001 85.500000000000014 0.37940000000000002
decision_type=2 2 2 2 2 2 2 2 2 2 2 2 2 2 2 2 2 2 2 2 2 2 2 2 2 2 2 2 2 2
left_child=2 4 9 15 5 6 7 29 21 11 -11 13 17 14 -1 -4 -12 -3 19 -8 -6 -5 -23 -24 25 -10 -26 -13 -16 -2
right_child=1 12 3 8 20 -7 18 -9 24 10 16 27 -14 -15 28 -17 -18 -19 -20 -21 -22 22 23 -25 26 -27 -28 -29 -30 -31
leaf_value=-0.051060589487109155 -0.043774797349994822 0.050174954038096325 -0.054785794246309444 0.018809727304272918 0.0069442780580625425 0.049596385825327979 -0.01923071410776285 0.0056716051255812777 -0.038768298267599567 -0.054763299490500884 -0.025088172889359009 -0.035200752736022176 0.060437302624011771 -0.057001221878585723 -0.07469720574344911 0.027859003823050357 0.016504160314705637 0.023023402302540335 0.044208278056507885 0.04330877951700144 0.043491504500219991 -0.057976111295270895 0.052083661912804405 -0.034357071348452256 0.055247718627107451 0.051779302285968415 0.018050389001970139 0.035215121007987675 0.011989326462205543 -0.0085862283637695783
leaf_weight=22.415578572079539 21.875825677299876 377.24141688458622 18.373942060396079 4.9145363522693541 7.7412729877978554 27.497730435803533 5.4679518416523916 77.770886027486995 5.4340610811486822 60.145113467006013 11.760416908189656 4.1661438902374348 163.31740003824234 538.82799151982181 1.1947443597018708 1.880533264717086 14.766427246853707 14.150851554237304 39.702528618276119 4.5236662514507771 88.694248206913471 7.4170523034408671 2.2196703534573317 2.3902907748706639 10.999075606465341 4.0147446640767157 13.373167563229797 2.7267994545400143 8.4296338930726034 8.6647143838927132
leaf_count=3184 2138 624 3150 78 72 135 93 1979 220 3618 514 443 121 89483 22 42 157 68 138 20 255 282 19 94 24 27 64 14 76 310
internal_value=1.29664e-10 0.0426157 -0.0484796 -0.00580214 0.0231611 0.0141173 0.00794289 -0.00545576 0.0106809 -0.0530412 -0.0385948 -0.0552083 0.0525037 -0.0557863 -0.0353537 -0.0471126 -0.00193539 0.0491933 0.0371461 0.0090838 0.0405577 -0.0179491 -0.0329697 0.00726366 0.0250222 -0.00029513 0.0348374 -0.00734473 0.00122829 -0.0337914
internal_weight=1572.1 836.648 735.45 71.0171 281.939 185.503 158.006 108.311 50.7626 664.433 86.672 577.761 554.71 570.868 32.04 20.2545 26.5268 391.392 49.6941 9.99162 96.4355 16.9415 12.027 4.60996 33.821 9.44881 24.3722 6.89294 9.62438 30.5405
internal_count=107464 5953 101511 4000 5140 4813 4678 4427 808 97511 4289 93222 813 92765 3282 3192 671 692 251 113 327 473 395 113 335 247 88 457 98 2448
is_linear=0
shrinkage=0.05


Tree=16
num_leaves=31
num_cat=0
split_feature=1 1 19 10 19 2 17 17 4 2 11 1 1 11 19 11 4 2 4 2 18 2 11 4 1 3 10 2 10 6
split_gain=1217.63 64.4442 55.1073 19.006 16.3784 15.4775 12.2989 8.51863 19.9436 8.27044 13.7435 7.66834 7.05307 6.84557 7.58086 6.40238 11.8323 6.76413 5.80867 5.77228 4.72551 4.62748 4.56922 7.23738 4.5568 4.32339 5.47349 3.84528 3.70885 3.48331
threshold=32.500000000000007 151.50000000000003 0.17764628533859306 0.60355000000000014 0.90195932354913222 7.5000000000000009 1.0000000180025095e-35 1.0000000180025095e-35 0.055450000000000006 122.50000000000001 0.78655000000000008 88.500000000000014 229.50000000000003 -1.0000000180025095e-35 0.53601356743814854 0.37940000000000002 1.3001500000000001 36.500000000000007 0.78255000000000008 29.500000000000004 3.0693432584303633 1.0000000180025095e-35 -0.3793999999999999 1.3001500000000001 71.500000000000014 9.1550000000000029 0.91595000000000015 64.500000000000014 0.60355000000000014 268.50000000000006
decision_type=2 2 2 2 2 2 2 2 2 2 2 2 2 2 2 2 2 2 2 2 2 2 2 2 2 2 2 2 2 2
left_child=2 4 7 27 5 6 18 19 -9 10 11 -7 15 14 -5 16 17 -3 24 25 -16 -10 23 -6 -2 26 -1 -4 -23 -15
right_child=1 12 3 13 22 9 -8 8 21 -11 -12 -13 -14 29 20 -17 -18 -19 -20 -21 -22 28 -24 -25 -26 -27 -28 -29 -30 -31
leaf_value=-0.050883632716477237 -0.039450533843873953 0.0060098638574500518 -0.053232025630127557 -0.051479589717765131 -0.014902248678935155 -0.019092042666591889 0.038691108177812059 -0.054019989935292917 -0.035079118304823735 0.05328719132418528 0.041749965313228755 0.017440540374366549 0.05565657202184221 0.002926163805352172 -0.052424857456208875 0.056472955385580309 0.051777309376802562 0.042934321941537311 0.01323978622636638 -0.0088118526733607632 0.034939392224532989 -0.017402801241137789 0.047552594542353173 0.03585821633324298 -0.0018575550361997644 -0.056317308260939086 -0.004964233212993982 0.031629144445430274 0.02824484373563468 0.03721775570035777
leaf_weight=21.530218442669142 26.247331556631252 34.266451266594231 18.060462522786114 7.5857449187897172 8.6492534140124899 23.958198606269434 11.589433547109364 58.344963469775394 7.4806299470365074 19.473222512751818 36.47618277464062 35.870174093171954 364.84721198305488 11.553657342679797 1.9730403814464788 61.020328342914581 59.266088426113129 19.438946403563023 11.088973382953553 6.7776505472138515 7.1820264076814055 7.0715394373983171 56.317041449248791 37.327969536185265 11.633911367505787 519.53586899349466 9.2894987110048515 1.4414472728967656 12.002491836436091 20.626447331160307
leaf_count=3184 2095 236 3185 490 115 1288 41 3618 393 71 176 567 380 95 86 46 96 55 201 457 65 186 140 148 298 89483 98 7 92 72
internal_value=1.88317e-10 0.0416111 -0.0478789 -0.00522248 0.0220884 0.0128553 -0.0076265 -0.0524249 -0.0376711 0.0235687 0.0175595 0.00281111 0.0517062 0.0114157 -0.0145161 0.0434226 0.0363735 0.0193749 -0.0185882 -0.0546732 0.0161112 -0.00174997 0.0380045 0.0263091 -0.0279052 -0.0552379 -0.0370429 -0.0469597 0.0113214 0.024906
internal_weight=1527.93 817.471 710.456 68.4228 278.632 176.337 60.5596 642.033 84.8996 115.778 96.3046 59.8284 538.839 48.9209 16.7408 173.992 112.971 53.7054 48.9702 557.133 9.15507 26.5547 102.294 45.9772 37.8812 550.356 30.8197 19.5019 19.074 32.1801
internal_count=107464 5953 101511 4000 5140 4737 2635 97511 4289 2102 2031 1855 813 808 641 433 387 291 2594 93222 151 671 403 263 2393 92765 3282 3192 278 167
is_linear=0
shrinkage=0.05


Tree=17
num_leaves=31
num_cat=0
split_feature=1 1 19 10 2 19 17 9 17 4 1 10 4 11 19 6 2 11 3 1 3 10 18 9 4 5 18 6 4 6
split_gain=1148.03 63.3055 49.3911 16.533 14.8034 11.2988 10.9945 10.0194 8.11771 17.8761 6.87588 6.641 6.40913 6.28346 7.28478 6.27421 5.98743 5.7425 4.9656 4.89126 4.67139 5.67175 4.5451 4.41928 4.24265 7.31129 5.06871 4.2126 4.16701 4.0522
threshold=32.500000000000007 151.50000000000003 0.17764628533859306 0.60355000000000014 7.5000000000000009 0.73126169751344294 1.0000000180025095e-35 0.0030500000000000002 1.0000000180025095e-35 0.055450000000000006 306.50000000000006 -1.0000000180025095e-35 0.78255000000000008 -0.3793999999999999 1.7869719213592734 79.500000000000014 29.500000000000004 1.0000000180025095e-35 24.635000000000002 62.500000000000007 9.1550000000000029 0.91595000000000015 4.6854051643811685 0.00125 0.34805000000000003 6.6050000000000013 3.3726181747421813 571.50000000000011 1.7499000000000002 705.50000000000011
decision_type=2 2 2 2 2 2 2 2 2 2 2 2 2 2 2 2 2 2 2 2 2 2 2 2 2 2 2 2 2 2
left_child=2 4 8 -4 5 6 18 12 16 -10 23 22 17 14 -5 -15 20 -6 -2 -20 21 -1 -9 -3 25 26 -17 28 -7 -29
right_child=1 10 3 13 7 27 -8 11 9 -11 -12 -13 -14 15 -16 24 -18 -19 19 -21 -22 -23 -24 -25 -26 -27 -28 29 -30 -31
leaf_value=-0.049952115847146511 0.050444574601411087 0.03014278105520582 -0.046158374877924124 -0.055685328696772167 -0.0054973663097877337 -0.0080873901310479345 0.037516074983838486 -0.028413687229038993 -0.053030006850046302 -0.0029479227051261324 0.058562423175254799 0.050537467400214878 0.036773297950764956 -0.065947884243291358 0.049456793457973644 0.031217773068794072 -0.0078974805776167046 0.024998196889512346 -0.038089396743873398 -0.0044994305559027678 -0.055720535918185245 -0.0031331832505956982 0.029646974044349107 0.048738624831607888 0.052121969300630899 -0.057426162974382723 -0.033271091656570176 0.058916607227804188 0.036986840622891329 0.010158337528942981
leaf_weight=20.973311102949086 2.4332267697900525 35.922817267477512 18.908564828336239 6.5584824020042998 31.758041407214478 12.372973853722215 10.539747618138788 4.1505042319186058 55.972603306407109 26.137919848784804 194.84671223163605 63.94718670938164 32.430724227800965 2.1279680766165248 2.2000375762581825 21.332971968688078 6.9622197123244396 30.038519244641066 24.032029298366979 19.740040178410709 501.3551961237099 9.3534819409251195 17.940332127735019 288.83071005251259 9.0445063263177854 3.2785009294748297 3.5546824987977734 12.970109774731101 8.7562307566404343 6.3462272295728317
leaf_count=3184 9 121 3192 477 1139 142 39 219 3618 671 168 265 164 61 7 130 457 343 1983 546 89483 98 167 524 26 66 41 27 36 61
internal_value=-3.02407e-10 0.0408399 -0.04733 -0.00654694 0.0215565 0.00582763 -0.00856518 0.0300367 -0.0517322 -0.0370876 0.0511369 0.0423728 0.0187728 0.00902561 -0.0292749 0.017553 -0.0539646 0.00932614 -0.0190766 -0.0229412 -0.0545679 -0.0355121 0.0187383 0.0466816 0.0223282 0.012761 0.0220069 0.0260207 0.010592 0.0428975
internal_weight=1484.82 797.056 687.76 67.0057 277.456 97.1906 56.745 180.265 620.755 82.1105 519.6 86.038 94.2273 48.0971 8.75852 39.3386 538.644 61.7966 46.2053 43.7721 531.682 30.3268 22.0908 324.754 37.2107 28.1662 24.8877 40.4455 21.1292 19.3163
internal_count=107464 5953 101511 4000 5140 2843 2577 2297 97511 4289 813 651 1646 808 484 324 93222 1482 2538 2529 92765 3282 386 645 263 237 171 266 178 88
is_linear=0
shrinkage=0.05


Tree=18
num_leaves=31
num_cat=0
split_feature=1 1 19 19 2 10 17 2 11 17 1 1 2 0 1 3 10 1 9 3 1 2 9 1 2 0 11 4 10 2
split_gain=1075.33 61.8038 44.6784 16.1494 14.2343 13.7979 9.76851 8.22851 12.6518 7.93779 16.8614 6.5826 6.41913 6.01906 5.94197 5.66542 6.63024 5.61064 5.36973 4.7079 4.4976 4.22838 4.12937 4.02772 3.81121 3.55817 3.50042 9.40807 4.38443 5.4535
threshold=32.500000000000007 155.50000000000003 0.17764628533859306 0.79955604883462827 7.5000000000000009 0.60355000000000014 1.0000000180025095e-35 132.50000000000003 0.78655000000000008 1.0000000180025095e-35 9.5000000000000018 306.50000000000006 29.500000000000004 7.5000000000000009 88.500000000000014 9.1550000000000029 0.91595000000000015 2.5000000000000004 0.032000000000000008 24.635000000000002 60.500000000000007 8.5000000000000018 0.00125 28.500000000000004 3.5000000000000004 40.500000000000007 0.37940000000000002 0.23705000000000001 0.9829500000000001 2.5000000000000004
decision_type=2 2 2 2 2 2 2 2 2 2 2 2 2 2 2 2 2 2 2 2 2 2 2 2 2 2 2 2 2 2
left_child=2 3 9 4 6 21 19 8 14 12 18 22 15 17 -6 16 -1 -7 -11 -2 -21 -4 -3 26 -5 -10 27 -15 29 -29
right_child=1 11 5 24 7 13 -8 -9 25 10 -12 -13 -14 23 -16 -17 -18 -19 -20 20 -22 -23 -24 -25 -26 -27 -28 28 -30 -31
leaf_value=-0.048770770810388372 0.048392829628881251 0.029594288473589216 -0.053795276820238019 0.0044668487949699629 -0.017309045185894004 0.036331973433870637 0.034718372643136257 0.05160763811646947 0.014789423265199754 -0.051743724561511321 0.0047352532102544389 0.057940266943379039 -0.0060225383452058535 -0.063452306133061895 0.014964182480067718 -0.055209208285521186 0.0020053906217567812 -0.033618145952756161 0.039166898680220344 -0.037387836307728954 -0.0054751044397445582 0.016882630785341933 0.048099480193829064 -0.03780408617033873 0.038811696688545158 0.049283705161412367 0.048577526911518683 -0.031503129599353606 0.059483168509333384 0.049366336159521539
leaf_weight=20.344465905800465 2.4897685535252085 33.880949718877673 16.016088580479849 8.7700937921181303 24.538546462310478 3.6919561754912165 10.568084783852099 19.293483838438988 10.599230345338581 58.627108284505084 19.051440799375996 187.8406235575676 7.0969063583761445 3.3764610919170179 34.056057024747133 482.40819840156473 9.3994176443666202 12.823865219485013 1.6705726655200113 23.303641896462068 20.980593846878037 2.4383182064630082 273.50415499694645 2.8083899687044314 102.29039506148547 25.371850728988647 10.115776430815457 4.6162871662527305 6.5857301577925673 3.8014421509578824
leaf_count=3184 9 119 3058 98 1278 41 40 66 106 3890 373 168 457 83 555 89483 98 432 26 1950 605 134 500 33 390 69 22 165 10 22
internal_value=1.46531e-10 0.0399233 -0.0466854 0.0212506 0.0116179 -0.00773212 -0.0086978 0.0218493 0.015778 -0.0509982 -0.0362693 0.0505661 -0.053249 0.0064405 0.00144864 -0.0539034 -0.0327249 -0.0179815 -0.049225 -0.0185072 -0.0222685 -0.0444568 0.0460598 0.0193253 0.0360996 0.0391196 0.0249557 0.011955 0.0289251 0.00501748
internal_weight=1442.36 777.487 664.872 282.262 171.201 66.2743 57.3421 113.859 94.5657 598.598 79.3491 495.226 519.249 47.8199 58.5946 512.152 29.7439 16.5158 60.2977 46.774 44.2842 18.4544 307.385 31.3041 111.06 35.9711 28.4957 18.3799 15.0035 8.41773
internal_count=107464 5953 101511 5166 4678 4000 2604 2074 2008 97511 4289 787 93222 808 1833 92765 3282 473 3916 2564 2555 3192 619 335 488 175 302 280 197 187
is_linear=0
shrinkage=0.05


Tree=19
num_leaves=31
num_cat=0
split_feature=1 1 19 9 10 18 1 17 11 19 9 11 1 10 11 3 10 19 1 2 5 10 10 18 11 6 4 2 11 11
split_gain=1010.32 61.5846 43.9386 14.8886 14.1643 10.2054 7.72145 15.3782 7.48673 9.3749 7.55315 7.23662 5.9651 5.95154 5.9353 5.70673 6.43386 5.6676 4.97478 4.89745 4.79139 7.61418 4.42764 4.09112 4.07253 3.89371 4.14143 3.50709 3.42057 3.71757
threshold=32.500000000000007 165.50000000000003 0.17764628533859306 0.00125 0.60355000000000014 4.3221991828257638 11.500000000000002 1.0000000180025095e-35 -0.3793999999999999 1.6486307167860168 0.023350000000000006 0.9829500000000001 229.50000000000003 -0.60354999999999992 -1.0000000180025095e-35 9.1550000000000029 0.91595000000000015 0.53601356743814854 49.500000000000007 19.500000000000004 10.260000000000002 -0.60354999999999992 -0.60354999999999992 3.0693432584303633 -0.91594999999999993 509.50000000000006 0.13845000000000005 8.5000000000000018 0.37940000000000002 0.78655000000000008
decision_type=2 2 2 2 2 2 2 2 2 2 2 2 2 2 2 2 2 2 2 2 2 2 2 2 2 2 2 2 2 2
left_child=2 3 6 18 27 13 15 11 9 19 22 -8 20 -5 17 16 -1 -6 -2 -7 -3 -22 -10 -19 -15 26 -16 -4 -9 -30
right_child=1 12 4 5 14 8 7 28 10 -11 -12 -13 -14 24 25 -17 -18 23 -20 -21 21 -23 -24 -25 -26 -27 -28 -29 29 -31
leaf_value=-0.048207528765384658 -0.028783812243352511 0.047579799819999255 -0.053134920815115609 -0.026403203133060157 -0.049835641808304826 -0.0089870891439250197 -0.05243480713617691 -0.065746757996432134 0.028093289519412108 0.043901365468661073 -0.017473755172538193 0.011190246035413548 0.054177269374636086 -0.028620779326275683 -0.029731526143021682 -0.054133232886447627 -2.9377664272730751e-05 -0.053919993281083503 0.0063652638985254462 0.022976242980819322 0.042067820149418407 -0.0060006501711363314 0.049686300841817847 0.029145834304888537 0.021400615169193782 0.045028758288699657 0.022248277750799815 0.012617931327703492 0.044426570468307794 -0.0070918484774864753
leaf_weight=20.600509204436097 13.15578976459801 95.589518887922168 15.423133262433113 10.65402750764042 7.0864375820383421 24.639636584790424 54.135249018203467 1.4033968304283906 34.677156665362418 25.872231218963861 5.4411848466843358 4.8712331745773545 327.56121583282948 4.5975067890249184 5.3474652115255656 471.81360104936175 10.442228947766123 1.9076378406025449 42.871465086238459 23.332457701675594 25.471699401736259 12.176767662167547 75.272706842049956 6.6481973035261035 35.399600295117125 10.922159630805252 13.521059489808975 2.3349722526036194 6.3670865581370872 7.7808309532701969
leaf_count=3311 850 219 3058 608 490 796 10168 67 319 75 96 214 380 306 55 83463 114 86 1015 319 52 83 178 65 657 38 74 134 45 129
internal_value=4.64367e-11 0.0391185 -0.0462086 0.0213188 -0.00662516 0.0267389 -0.0505406 -0.0355247 0.0320744 0.0196424 0.0400303 -0.0471823 0.0505491 0.00680515 0.00817454 -0.052767 -0.0320012 -0.0167654 -0.00188811 0.0065591 0.0416293 0.0265209 0.0428761 0.0106252 0.0156509 0.0212698 0.00751686 -0.0444892 0.00870785 0.0160933
internal_weight=1397.32 756.713 640.605 295.914 63.1911 239.887 577.414 74.5578 189.235 73.8443 115.391 59.0065 460.799 50.6511 45.433 502.856 31.0427 15.6423 56.0273 47.9721 133.238 37.6485 109.95 8.55584 39.9971 29.7907 18.8685 17.7581 15.5513 14.1479
internal_count=107464 5953 101511 5219 4000 3354 97511 10623 1783 1190 593 10382 734 1571 808 86888 3425 641 1865 1115 354 135 497 151 963 167 129 3192 241 174
is_linear=0
shrinkage=0.05


Tree=20
num_leaves=31
num_cat=0
split_feature=1 1 19 19 10 2 11 1 17 4 1 2 11 19 4 6 11 6 4 10 3 9 10 2 3 2 2 11 4 4
split_gain=948.802 60.4775 41.9416 15.7973 13.2629 12.2936 16.158 8.53321 7.60464 16.1776 7.31654 6.13034 5.83619 6.1494 5.83109 5.05753 4.58582 12.1321 8.66647 4.90234 4.45003 3.96683 3.91997 3.77445 3.72859 4.01679 3.49032 3.20121 5.56597 3.01311
threshold=32.500000000000007 151.50000000000003 0.17764628533859306 0.96550588535248383 0.60355000000000014 119.50000000000001 0.91595000000000015 69.500000000000014 1.0000000180025095e-35 0.055450000000000006 306.50000000000006 29.500000000000004 -0.3793999999999999 1.7869719213592734 0.38405000000000006 79.500000000000014 0.37940000000000002 629.50000000000011 1.0593500000000002 0.60355000000000014 9.1550000000000029 0.0015500000000000004 0.91595000000000015 1.0000000180025095e-35 179.17500000000004 7.5000000000000009 64.500000000000014 -0.3793999999999999 1.7499000000000002 0.34805000000000003
decision_type=2 2 2 2 2 2 2 2 2 2 2 2 2 2 2 2 2 2 2 2 2 2 2 2 2 2 2 2 2 2
left_child=2 3 8 5 26 6 7 14 11 -10 16 20 13 -6 -2 -14 17 18 19 -3 22 -20 -1 -11 25 -8 -4 28 -5 -17
right_child=1 10 4 27 12 -7 24 -9 9 23 -12 -13 15 -15 -16 29 -18 -19 21 -21 -22 -23 -24 -25 -26 -27 -28 -29 -30 -31
leaf_value=-0.046867930400702494 -0.036701728428179557 0.014349741290525958 -0.05031269759746633 0.0055692093525115628 -0.055113960993811884 0.048163598845592466 -0.032071897552575362 0.0074062338311656137 -0.051779823141839092 -0.033717964618525754 0.057207961427265752 -0.0058296354009779693 -0.062470214135562974 0.045299968198039713 -0.0011442720116641434 0.012838712618079718 0.055076007168620794 0.009328834820859477 0.030697996848038984 0.047077362652242605 -0.054303349478499498 0.054418256367346346 -0.007314631359838699 0.0094623166255156203 0.042102014441768497 0.027438349656236611 0.034122382002480932 0.045144942262346374 0.042324594055897322 0.047840788223410945
leaf_weight=19.101786401821304 25.270041962852702 30.186448212713003 15.839161210926251 18.339862043038011 6.1341774817556125 19.323268761858344 3.9405036512762299 66.977959120646119 49.79846547730267 7.0197036610916284 174.20647539198399 6.9659945587627581 1.9111884371377517 2.0290335193276405 21.205339299980551 25.992204174399376 74.051443189382553 27.052418667823076 20.481590762734413 18.427321046590805 445.11189938778989 126.40316512435675 9.3206020910292846 18.135800367221236 29.169805847108364 10.112060282379387 1.3264335207641114 47.87457218952477 23.49575412273407 8.0535306427627784
leaf_count=3184 2330 156 3185 164 477 74 66 1320 3618 393 168 457 61 7 800 237 65 145 64 44 89483 171 98 278 111 73 7 123 79 26
internal_value=-9.3899e-11 0.0383113 -0.0457518 0.0192394 -0.00649763 0.0105353 0.00589448 -0.00401632 -0.0500829 -0.0352702 0.0490749 -0.0523935 0.0080108 -0.0301552 -0.0204779 0.0166755 0.044298 0.0407117 0.0450544 0.0267553 -0.0530785 0.0511107 -0.0338971 -0.00258724 0.0319091 0.010751 -0.0437882 0.0363156 0.0262118 0.0211185
internal_weight=1353.26 736.518 616.74 265.709 61.2857 175.999 156.676 113.453 555.454 74.954 470.809 480.5 44.1201 8.16321 46.4754 35.9569 296.602 222.551 195.499 48.6138 473.534 146.885 28.4224 25.1555 43.2224 14.0526 17.1656 89.7102 41.8356 34.0457
internal_count=107464 5953 101511 5140 4000 4774 4700 4450 97511 4289 813 93222 808 484 3130 324 645 580 435 200 92765 235 3282 671 250 139 3192 366 243 263
is_linear=0
shrinkage=0.05


Tree=21
num_leaves=31
num_cat=0
split_feature=1 1 19 19 2 11 10 4 17 4 1 11 3 2 11 4 3 6 10 2 0 5 6 6 2 5 3 4 11 3
split_gain=896.134 62.2242 39.0543 14.7441 12.1664 16.0143 11.9646 9.14804 7.4219 14.9075 7.11906 7.40554 8.6301 6.25791 5.45548 5.59162 4.83049 4.45017 4.05978 3.49963 3.37183 3.36289 3.45989 3.68823 3.33876 3.23944 3.19367 3.05821 3.98986 4.22001
threshold=32.500000000000007 151.50000000000003 0.17764628533859306 0.96550588535248383 73.500000000000014 0.91595000000000015 0.60355000000000014 0.31760000000000005 1.0000000180025095e-35 0.055450000000000006 213.50000000000003 0.37940000000000002 120.105 29.500000000000004 -0.3793999999999999 1.3001500000000001 9.1550000000000029 79.500000000000014 0.78655000000000008 36.500000000000007 37.500000000000007 3.1100000000000008 79.500000000000014 81.500000000000014 8.5000000000000018 2.7800000000000007 174.68500000000003 0.45025000000000004 0.37940000000000002 47.625000000000007
decision_type=2 2 2 2 2 2 2 2 2 2 2 2 2 2 2 2 2 2 2 2 2 2 2 2 2 2 2 2 2 2
left_child=2 3 8 4 5 7 24 -2 13 -10 11 12 -3 16 15 -8 18 -16 -1 -14 -7 -11 -23 -24 -4 -5 -25 28 29 -19
right_child=1 10 6 25 -6 20 14 -9 9 21 -12 -13 19 -15 17 -17 -18 27 -20 -21 -22 22 23 26 -26 -27 -28 -29 -30 -31
leaf_value=-0.048718310618721838 -0.031223972015632914 0.047184111376073666 -0.051892809699500803 -0.0033701894832021441 0.04206184247221087 0.0046064735039312204 -0.055113629361481509 0.0026489815928627241 -0.051062737557862774 -0.054351289577703132 0.052759199225429855 0.055443989149517536 0.003964916365438228 -0.0051009530841707165 -0.06113918651559383 0.042327856672565611 -0.053962507437933661 0.01399260517212432 -0.010005852485058133 0.03498824843798444 0.038324562504430428 -0.040100981187971257 0.0601477746762972 -0.019465647853882218 0.012499245052566468 0.037450925987593302 0.027086621380009043 0.054083194275486225 0.038326341655959814 -0.039809657563484813
leaf_weight=16.119472047081221 26.441445499891415 36.618953220546246 14.370291081955658 5.1622623968869439 25.289007806219161 9.5960200503468496 5.8810564591549328 80.972425441257656 47.75931874406524 2.8527821046300259 331.4694211166352 42.24692639708519 28.32554086111486 7.0259910579770795 1.8020930783823121 1.9639348015189169 428.12923042988405 12.97604881972075 11.679238394834099 13.386540487408636 32.614148514345288 3.7895374558866051 3.3103970140218761 8.0709985331632179 2.3410197328776112 83.016427922993898 6.7784703169018021 5.3717436231672755 9.9433866646140796 5.0681179696694008
leaf_count=3009 2202 73 3058 38 135 113 477 2187 3618 182 443 37 212 457 61 7 89483 124 273 48 137 145 5 294 134 328 45 14 28 97
internal_value=1.23348e-10 0.0377231 -0.0453222 0.0183904 0.0099862 0.00456487 -0.00696956 -0.00568933 -0.0495991 -0.0347309 0.0489748 0.0385713 0.0294712 -0.0519294 0.00698147 -0.0307199 -0.0526511 0.0153932 -0.0324538 0.0139211 0.0306591 -0.00328217 0.00335533 0.0124236 -0.0428724 0.0350611 0.00178448 0.0195275 0.0128951 -0.00111899
internal_weight=1310.37 715.139 595.233 263.092 174.913 149.624 59.7177 107.414 535.515 72.5615 452.047 120.578 78.331 462.954 43.0064 7.84499 455.928 35.1614 27.7987 41.7121 42.2102 24.8022 21.9494 18.1599 16.7113 88.1787 14.8495 33.3593 27.9876 18.0442
internal_count=107464 5953 101511 5140 4774 4639 4000 4389 97511 4289 813 370 333 93222 808 484 92765 324 3282 260 250 671 489 344 3192 366 339 263 249 221
is_linear=0
shrinkage=0.05


Tree=22
num_leaves=31
num_cat=0
split_feature=1 1 19 19 2 11 10 1 17 4 1 2 11 19 3 0 4 10 2 3 9 2 2 9 2 11 10 18 6 10
split_gain=838.261 61.6597 35.982 14.1437 11.4131 15.4076 10.8126 7.99196 7.32475 14.032 6.80762 5.74314 5.55314 12.3749 5.37621 4.58051 4.5248 4.15512 3.82164 3.68775 3.44161 3.24688 3.22416 2.96761 2.93301 2.86774 2.80149 2.7779 3.05342 2.61161
threshold=32.500000000000007 151.50000000000003 0.17764628533859306 0.79955604883462827 73.500000000000014 0.91595000000000015 0.60355000000000014 92.500000000000014 1.0000000180025095e-35 0.055450000000000006 241.00000000000003 29.500000000000004 0.37940000000000002 0.65619304374240595 9.1550000000000029 7.5000000000000009 0.70380000000000009 0.78655000000000008 3.5000000000000004 179.17500000000004 0.00125 64.500000000000014 1.0000000180025095e-35 0.0031500000000000005 7.5000000000000009 -0.60354999999999992 -1.0000000180025095e-35 1.8009340385621535 268.50000000000006 0.60355000000000014
decision_type=2 2 2 2 2 2 2 2 2 2 2 2 2 2 2 2 2 2 2 2 2 2 2 2 2 2 2 2 2 2
left_child=2 3 8 4 5 7 21 16 11 -10 12 14 13 -3 17 27 25 -1 -5 24 -20 -4 -11 -6 -7 -2 -21 28 -8 -24
right_child=1 10 6 18 23 19 15 -9 9 22 -12 -13 -14 -15 -16 -17 -18 -19 20 26 -22 -23 29 -25 -26 -27 -28 -29 -30 -31
leaf_value=-0.047957063670344052 -0.043889326978676375 0.0099381903337036823 -0.049037071219870908 0.0010727397151868441 0.017689958784177173 -0.029938342196829643 -0.043249876440960067 0.0097888577724361339 -0.050316536302581732 -0.032854665763235064 0.053197191584994453 -0.0063036458463973074 0.053952076030005361 0.045482994799723557 -0.053616053417797349 0.018311333695330837 0.010997985834081372 -0.008834632311548905 0.0047370142130303992 0.008506952991359255 0.039006663251358709 0.032632533449997343 -0.01606023287929079 0.053437147335209378 0.022539872515841001 -0.017571744918416368 0.047658210617971174 -0.037408260165269179 0.027140811998820954 0.023526815675085948
leaf_weight=15.478324109455572 14.91895905532874 36.063777910545468 14.755740171764048 8.6710307346656901 9.3346473034471291 3.8005745336413375 2.2115794788114709 39.441150992643088 45.764852332416922 6.6454079737886813 272.27788077294827 6.9315183339640489 51.111016139388084 76.278232522308826 409.09527751232963 26.806922028306872 10.196255527902393 12.086650996468959 8.0658535007387382 5.7883613370358971 79.898960085585713 1.3263783007860173 6.8393359235487905 15.357846230268477 8.8917338438332063 33.807614926015958 21.693151541054249 7.6064577796496451 5.0781085486523807 10.65948167722672
leaf_count=3009 1718 264 3185 98 93 64 79 678 3618 393 350 457 49 150 89483 335 217 273 80 55 297 7 186 42 71 1671 56 362 32 92
internal_value=6.68702e-10 0.0368586 -0.044879 0.0175822 0.008607 0.00302527 -0.00747243 -0.00763104 -0.0490885 -0.0340459 0.0483549 -0.0514591 0.0402887 0.0340725 -0.0521759 0.00595878 -0.0192914 -0.0308027 0.0327425 0.0291168 0.0358643 -0.0423013 -0.00320533 0.0399234 0.00682584 -0.0256296 0.0394119 -0.0162707 0.00578536 0.00805439
internal_weight=1266.88 695.597 571.286 259.866 163.23 138.538 57.7852 98.364 513.501 69.9091 435.731 443.592 163.453 112.342 436.66 41.7031 58.9228 27.565 96.6358 40.1738 87.9648 16.0821 24.1442 24.6925 12.6923 48.7266 27.4815 14.8961 7.28969 17.4988
internal_count=107464 5953 101511 5140 4665 4530 4000 4284 97511 4289 813 93222 463 414 92765 808 3606 3282 475 246 377 3192 671 135 135 3389 111 473 111 278
is_linear=0
shrinkage=0.05


Tree=23
num_leaves=31
num_cat=0
split_feature=1 1 19 1 6 10 11 3 10 17 4 9 11 3 2 1 3 19 19 11 4 9 11 19 19 4 10 2 3 4
split_gain=784.835 60.8705 33.3431 13.5197 9.61475 9.17784 7.06504 9.57688 8.75806 6.98049 12.9172 6.83865 6.6803 5.7276 5.65688 5.50889 5.38853 4.96936 4.70177 7.74811 4.68448 4.57979 4.48545 4.8001 4.28989 4.58739 4.03731 3.62684 3.53763 3.4523
threshold=32.500000000000007 168.50000000000003 0.17467285917689337 62.500000000000007 476.50000000000006 0.60355000000000014 0.91595000000000015 29.775000000000002 0.91595000000000015 1.0000000180025095e-35 0.047750000000000008 0.0090500000000000008 -1.0000000180025095e-35 124.37500000000001 29.500000000000004 306.50000000000006 9.1550000000000029 0.55193568859741915 0.73126169751344294 0.60355000000000014 1.0593500000000002 0.0049500000000000004 -0.3793999999999999 2.1876072041166386 0.27185200138226934 0.077950000000000005 0.9829500000000001 122.50000000000001 19.535000000000004 0.054650000000000011
decision_type=2 2 2 2 2 2 2 2 2 2 2 2 2 2 2 2 2 2 2 2 2 2 2 2 2 2 2 2 2 2
left_child=2 3 9 6 11 -4 7 -2 29 14 -11 -5 20 -10 16 18 26 -13 19 21 27 -3 23 -7 25 -24 -1 -6 -26 -9
right_child=1 15 5 4 12 22 -8 8 13 10 -12 17 -14 -15 -16 -17 -18 -19 -20 -21 -22 -23 24 -25 28 -27 -28 -29 -30 -31
leaf_value=-0.038855282547023112 0.033224845133579171 0.018377804174792883 -0.040999926191736064 0.0013440275445150375 -0.0061225309309416494 -0.051114815263674687 0.023443875622144287 0.0056753206027516647 0.045635469112790969 -0.050908566290891404 -0.0057574739017492334 0.0044488879101955911 0.046088517735268036 -0.047498007422092786 -0.0062840647323956977 0.056306759123733209 -0.053292857016944299 0.041337510649441023 0.051537350041306378 0.054739124612825291 0.035657732605861213 0.042798149595040941 0.027867178151019412 0.04582218177672906 -0.032985818870658587 -0.03407775838067291 0.01297855667410271 0.051391320497914783 0.032803018428704422 -0.034344548218961692
leaf_weight=22.099548872094605 11.741121783852575 47.736886650323868 15.619962220778687 49.894973665941507 16.989862689282749 6.0355736373458049 27.065600078552961 6.4626708962023249 7.5968092577531916 41.589680263306946 25.58568376256153 13.759330850094555 64.470222378149629 2.109155748039484 6.9380582929588845 154.44609026610851 389.88140808686148 27.133451237343252 111.86774448305368 41.946587696671486 24.488670405931771 32.115632936358452 4.7563560558482996 1.6197879090905187 2.2929057078436044 8.0425041555426997 4.5260777920484534 3.2684090435504904 18.776416114531457 32.43252159981057
leaf_count=3255 62 246 3193 874 516 526 193 114 40 3469 817 218 245 151 457 168 89431 83 172 40 105 86 41 4 46 135 27 17 110 2623
internal_value=-2.646e-10 0.0360637 -0.0444753 0.0186224 0.0257914 -0.0083288 0.00221857 -0.00730172 -0.0170922 -0.0486853 -0.0337115 0.0137673 0.0357864 0.0253971 -0.0510608 0.0489796 -0.0518067 0.0289255 0.0441367 0.0373394 0.0209435 0.0281993 0.00396114 -0.030604 0.011774 -0.0110576 -0.0300441 0.00315658 0.0256434 -0.027695
internal_weight=1223.29 675.526 547.764 287.413 200.005 57.1435 87.4079 60.3423 48.6012 490.62 67.1754 90.7878 109.217 9.70597 423.445 388.113 416.507 40.8928 233.667 121.799 44.7469 79.8525 41.5235 7.65536 33.8682 12.7989 26.6256 20.2583 21.0693 38.8952
internal_count=107464 5953 101511 5241 2058 4055 3183 2990 2928 97456 4286 1175 883 191 93170 712 92713 301 544 372 638 332 862 530 332 176 3282 533 156 2737
is_linear=0
shrinkage=0.05


Tree=24
num_leaves=31
num_cat=0
split_feature=1 1 19 19 2 11 10 17 4 1 10 1 4 2 3 11 19 11 1 10 19 10 19 11 1 3 2 2 6 18
split_gain=737.316 60.6076 32.1418 12.9394 10.4243 13.8257 8.4233 6.97873 13.3386 5.68323 6.3559 5.35885 5.79984 5.18878 5.48772 4.4249 4.26202 6.89299 4.66102 4.25589 4.13562 3.81871 3.7098 5.52114 7.1311 3.70154 3.20414 3.14592 3.14373 3.13451
threshold=32.500000000000007 165.50000000000003 0.17009221867277441 0.55193568859741915 161.00000000000003 0.60355000000000014 0.60355000000000014 1.0000000180025095e-35 0.047750000000000008 326.50000000000006 -0.98294999999999988 80.500000000000014 0.78255000000000008 29.500000000000004 9.1550000000000029 -1.0000000180025095e-35 1.9856005678649293 -0.3793999999999999 90.500000000000014 -0.78654999999999986 0.55193568859741915 0.78655000000000008 0.73126169751344294 0.60355000000000014 229.50000000000003 156.06500000000003 8.5000000000000018 38.500000000000007 509.50000000000006 3.0693432584303633
decision_type=2 2 2 2 2 2 2 2 2 2 2 2 2 2 2 2 2 2 2 2 2 2 2 2 2 2 2 2 2 2
left_child=2 3 7 4 5 11 26 13 -9 10 -3 12 -2 14 21 20 17 18 -5 -19 -8 -1 23 24 -12 27 -4 -7 -17 -22
right_child=1 9 6 16 -6 25 15 8 -10 -11 22 -13 -14 -15 -16 28 -18 19 -20 -21 29 -23 -24 -25 -26 -27 -28 -29 -30 -31
leaf_value=-0.046689853879004845 -0.029977409322034795 0.0027206295235306438 -0.049567960000861187 -0.016961197471920739 0.050517171880831151 -0.010424822455837715 -0.045015669491159316 -0.05119990483172137 -0.0048373684815563988 0.057552360927896853 0.011110582663877206 0.0029294578722367428 0.028621958388969804 -0.0073764440015320802 -0.053077042536962174 0.0031715540688139719 0.043289459914467344 0.0084184867382043581 0.020617692586048581 0.042604404931896524 -0.052782955883283057 -0.0082667348891556844 0.052006396369620171 0.054489482135383405 0.04204227305537047 0.030124516319927325 0.01446484831420701 0.049926897540536558 0.039499645780805254 0.025839542066574996
leaf_weight=14.343170773820022 34.736739832442254 8.8869055733084661 13.068720116047187 13.487174412235616 12.931051149964331 11.713847602251915 7.3805477521382254 39.87981720501557 25.39120611269027 116.33755764365196 26.599761942401528 41.094994954764843 4.8068119687959543 6.769813052378594 371.85524117620662 17.406603669747714 38.31257513910532 11.788474132306872 21.256017963401973 39.980320408008993 1.6363211264833806 11.775385746732352 122.53852935880423 43.68539397418499 62.215842433273792 41.792057258076966 2.2970329250674686 2.6472571417689315 9.0522777605801803 5.6273598130792379
leaf_count=3009 2910 35 3083 255 40 256 624 3469 806 121 206 839 62 452 89337 141 117 133 153 132 81 273 187 43 142 314 135 8 40 61
internal_value=1.25317e-10 0.0354203 -0.0440538 0.017518 0.00760679 0.00355043 -0.00841167 -0.048336 -0.0331643 0.0483456 0.0442873 -0.00971435 -0.0228542 -0.0507826 -0.051521 0.00339551 0.0294061 0.0232577 0.00602971 0.0348198 -0.0186559 -0.029367 0.0457357 0.0399365 0.0327784 0.0225993 -0.0399957 0.000700124 0.0156003 0.00812791
internal_weight=1181.29 654.811 526.483 274.547 149.723 136.792 56.4689 470.015 65.271 380.264 263.926 80.6385 39.5436 404.744 397.974 41.1031 124.825 86.512 34.7432 51.7688 14.6442 26.1186 255.04 132.501 88.8156 56.1532 15.3658 14.3611 26.4589 7.26368
internal_count=107464 5953 101511 5219 4429 4389 4165 97346 4275 734 613 3811 2972 93071 92619 947 790 673 408 265 766 3282 578 391 348 578 3218 264 181 142
is_linear=0
shrinkage=0.05


Tree=25
num_leaves=31
num_cat=0
split_feature=1 1 19 19 2 11 10 4 17 4 1 3 0 11 19 6 1 0 10 0 2 19 2 2 11 9 1 10 3 11
split_gain=693.474 59.902 29.9378 12.4403 9.14066 11.8657 7.92919 7.08864 6.92506 12.3523 6.85079 5.50216 5.68749 4.0398 9.20742 6.18279 3.92858 3.84874 3.65545 3.61779 3.11126 3.02098 2.94886 2.86949 2.76584 2.75074 2.69557 4.11319 3.03367 2.67352
threshold=32.500000000000007 151.50000000000003 0.17467285917689337 1.0520167240531235 73.500000000000014 0.91595000000000015 0.60355000000000014 0.31760000000000005 1.0000000180025095e-35 0.045250000000000005 306.50000000000006 9.1550000000000029 -6.4999999999999991 0.37940000000000002 0.40196524320183841 629.50000000000011 229.50000000000003 7.5000000000000009 0.78655000000000008 37.500000000000007 1.0000000180025095e-35 0.078791892143574058 3.5000000000000004 64.500000000000014 0.37940000000000002 0.0031500000000000005 105.50000000000001 0.91595000000000015 24.635000000000002 -0.3793999999999999
decision_type=2 2 2 2 2 2 2 2 2 2 2 2 2 2 2 2 2 2 2 2 2 2 2 2 2 2 2 2 2 2
left_child=2 3 8 4 5 7 23 24 11 -10 13 18 21 14 16 -16 -3 -8 -1 -7 -11 -13 -5 -4 -2 -6 27 28 -9 -18
right_child=1 10 6 22 25 19 17 26 9 20 -12 12 -14 -15 15 -17 29 -19 -20 -21 -22 -23 -24 -25 -26 -27 -28 -29 -30 -31
leaf_value=-0.045821543803023113 -0.038727790556245513 0.0054052067117338447 -0.046439484147506392 0.0017394529454542716 0.015890912493081524 1.1576513818040299e-05 -0.01724864741581494 0.047259643454578094 -0.051085013334761613 -0.032730546478166166 0.05591719293907902 -0.031102832434095007 -0.053024789249070774 0.053446155053884892 0.049081610640284816 0.013542398742589393 0.045475946317893791 0.01531059984382485 -0.0080619263731311532 0.035734669826177977 0.0049174446701849266 0.0312307855104548 0.035577627083199947 0.032683028387188111 -0.0026448757832826875 0.051545938386034468 0.013285655243766415 0.030246307343225642 -0.013672938363925495 0.015222378855516841
leaf_weight=13.601563420845197 17.799790691817183 23.169403523206711 13.457330233068204 7.0995705705136052 8.8557887123897689 9.2898435387760383 14.335222766734658 2.1472914554178706 37.212257385835983 7.8143304823897806 140.40232956409454 7.6258303166832757 352.57720940187573 59.336608618497849 120.24276367202401 13.62462919205427 17.447284109890465 24.74109812034294 12.121693285182117 29.893875990062952 18.431591765955091 2.6086985996225849 69.138397719711065 1.2525471709668625 7.569252047687768 13.899869173765181 33.166527706198394 7.1219095792621365 41.946272881003097 12.559013247489927
leaf_count=3009 1936 206 3186 72 93 113 507 8 3410 510 168 1097 88702 65 228 61 37 355 273 138 366 89 255 7 266 42 461 56 1700 48
internal_value=-2.01687e-11 0.0348042 -0.0436764 0.0156187 0.00815537 0.00364583 -0.0084125 -0.00478687 -0.0478727 -0.0325588 0.0471022 -0.0503739 -0.0519582 0.0420789 0.0384728 0.0454645 0.0208713 0.00336618 -0.0280279 0.0272653 -0.00629168 -0.0152145 0.0324265 -0.0397022 -0.0279619 0.0376701 0.00218058 -0.00501093 -0.0107056 0.0328134
internal_weight=1140.49 634.71 505.779 247.928 171.69 148.935 53.7862 109.751 451.993 63.4582 386.782 388.535 362.812 246.38 187.043 133.867 53.1757 39.0763 25.7233 39.1837 26.2459 10.2345 76.238 14.7099 25.369 22.7557 84.382 51.2155 44.0936 30.0063
internal_count=107464 5953 101511 5140 4813 4678 4055 4427 97456 4286 813 93170 89888 645 580 289 291 862 3282 251 876 1186 327 3193 2202 135 2225 1764 1708 85
is_linear=0
shrinkage=0.05


Tree=26
num_leaves=31
num_cat=0
split_feature=1 1 19 19 2 10 17 4 2 11 17 1 3 2 11 19 11 1 19 11 1 10 3 1 1 10 1 6 6 6
split_gain=652.436 58.7143 27.9678 12.032 9.93979 7.01346 6.82012 11.1377 5.85364 8.41235 5.66585 5.63832 5.43714 5.54218 3.94462 3.69364 6.41702 3.68444 3.58827 7.45791 4.90814 3.51786 3.47788 3.40571 3.37012 3.32174 3.20635 2.91994 3.35932 4.5235
threshold=32.500000000000007 165.50000000000003 0.17467285917689337 0.55193568859741915 7.5000000000000009 0.60355000000000014 1.0000000180025095e-35 0.045250000000000005 161.00000000000003 0.78655000000000008 1.0000000180025095e-35 306.50000000000006 9.1550000000000029 29.500000000000004 -1.0000000180025095e-35 1.9856005678649293 -0.3793999999999999 90.500000000000014 0.73126169751344294 0.60355000000000014 229.50000000000003 -0.78654999999999986 24.635000000000002 53.500000000000007 22.500000000000004 0.78655000000000008 52.500000000000007 509.50000000000006 284.50000000000006 268.50000000000006
decision_type=2 2 2 2 2 2 2 2 2 2 2 2 2 2 2 2 2 2 2 2 2 2 2 2 2 2 2 2 2 2
left_child=2 3 6 4 10 -4 12 -8 9 -6 22 18 25 -14 24 16 17 -5 19 20 -3 -18 -2 -24 -7 -1 -11 28 29 -16
right_child=1 11 5 15 8 14 7 -9 -10 26 -12 -13 13 -15 27 -17 21 -19 -20 -21 -22 -23 23 -25 -26 -27 -28 -29 -30 -31
leaf_value=-0.045068516773741338 0.043576922179628205 0.011150745313907161 -0.039194810136258515 -0.014824549879790261 -0.00011668831700482338 -0.036034394751498416 -0.05034053912011837 -0.0071771930290626743 0.047215822661726477 -0.0074692176225831632 0.030697085384372599 0.055707281196142239 -0.052688630436615827 -0.0070284663198046139 -0.0046755084692738013 0.041595423992108749 0.010334304658088413 0.018926301905795244 0.04945351283729333 0.053958058993151495 0.037536603205174893 0.041311346387116386 -0.03948334431154206 -0.0095896818251757845 0.019272857652845064 -0.0084970299285623413 0.039809626881812089 0.037315709756943469 -0.041228981719365898 0.061345108555934391
leaf_weight=12.994198518572377 2.1229507960379115 29.136066826060414 14.161780774011275 13.321195946540682 56.146226997254416 9.5147300311364216 35.485759123694152 25.819742003455758 12.995859168469904 4.188885290175679 6.7396388761699191 133.81487941741943 338.62432821677066 6.7788135753944507 9.6112454337999278 36.051680963486433 12.080319572240112 20.576252959668636 101.86664675921202 39.847593635320663 44.607430249452591 37.979423372074962 16.41594099579379 22.706474050413817 3.8765655108727506 11.890649187378584 24.918750759214163 8.5474826339632255 3.6218834333121768 3.55385448783636
leaf_count=3009 9 225 3193 255 1759 611 3410 876 40 69 35 168 89431 457 97 117 133 153 178 43 120 132 1624 791 81 273 102 38 29 6
internal_value=-1.18398e-10 0.0341634 -0.0434035 0.016476 0.00684702 -0.00908551 -0.0476088 -0.0321616 0.0159571 0.0111921 -0.0118059 0.0476462 -0.0501663 -0.0517925 0.00192528 0.0282092 0.0224611 0.00566272 0.0426397 0.0365293 0.0271115 0.033836 -0.018751 -0.0221332 -0.0200238 -0.0275937 0.0330057 0.0135271 0.00141464 0.0131464
internal_weight=1100 615.516 484.481 266.244 146.235 52.8875 431.593 61.3055 98.2497 85.2539 47.985 349.273 370.288 345.403 38.7258 120.009 83.9572 33.8974 215.458 113.591 73.7435 50.0597 41.2454 39.1224 13.3913 24.8848 29.1076 25.3345 16.787 13.1651
internal_count=107464 5953 101511 5219 4429 4055 97456 4286 1970 1930 2459 734 93170 89888 862 790 673 408 566 388 345 265 2424 2415 692 3282 171 170 132 103
is_linear=0
shrinkage=0.05


Tree=27
num_leaves=31
num_cat=0
split_feature=1 1 19 19 2 10 9 11 4 1 17 11 3 1 10 2 6 11 19 10 1 6 18 11 4 4 5 5 5 2
split_gain=608.555 58.1177 28.6086 11.3085 10.2536 7.15877 7.00228 6.91167 6.72393 6.70508 10.1162 6.37164 6.11239 5.80186 5.11896 3.92513 3.87124 3.76089 3.82212 3.6263 3.53287 3.25755 3.06374 2.98434 5.3671 2.75111 4.99164 3.24876 6.1925 2.74878
threshold=32.500000000000007 165.50000000000003 0.17467285917689337 1.2592918892131493 14.500000000000002 0.60355000000000014 0.0030500000000000002 -1.0000000180025095e-35 0.40515000000000007 11.500000000000002 1.0000000180025095e-35 0.9829500000000001 9.1550000000000029 236.50000000000003 -1.0000000180025095e-35 32.500000000000007 614.50000000000011 -0.3793999999999999 2.1876072041166386 0.91595000000000015 47.500000000000007 79.500000000000014 4.5807311019672623 1.0000000180025095e-35 1.3001500000000001 0.34805000000000003 6.6050000000000013 5.370000000000001 3.9450000000000007 8.5000000000000018
decision_type=2 2 2 2 2 2 2 2 2 2 2 2 2 2 2 2 2 2 2 2 2 2 2 2 2 2 2 2 2 2
left_child=2 3 9 4 7 29 -6 8 -2 12 11 -11 19 15 20 23 -8 18 -7 -1 -9 -19 -16 24 -3 26 27 28 -23 -4
right_child=1 13 5 -5 6 17 16 14 -10 10 -12 -13 -14 -15 22 -17 -18 21 -20 -21 -22 25 -24 -25 -26 -27 -28 -29 -30 -31
leaf_value=-0.041157405782814231 -0.050430369255558744 0.0054002820797194239 -0.048039991512544858 0.033606051081499694 0.0081192083359012939 -0.049339535708333618 0.021180588913756439 -0.033518186147424515 -0.0047738405066744842 -0.049300415719033555 0.0064268548410072839 0.017433692339400671 -0.051657548556627644 0.051749314101115801 0.032515372935724783 0.049026947166630329 0.051526373606210908 -0.058393385886113196 0.04265723937433815 -0.0026520939695957005 0.0057725590067974506 0.019403701363998032 -0.018132495903315393 0.045706341094510307 0.040575695164313627 0.044183512772203427 -0.052399924115994416 0.042191195212293239 -0.067190657555238648 0.013530297420933469
leaf_weight=15.985523972660305 10.285200630081816 22.54127954877913 11.590304035460575 66.029787233099341 40.240726181771606 5.3370504083577535 19.819134100805968 7.126900859642773 37.342908567748964 38.926320381346159 13.526486098766325 3.9387246323749414 330.75854028400499 227.15512654185295 24.86106883734465 44.636334881186485 22.374697498977184 1.5876913866959537 1.4319267719984052 9.9021222554147226 29.006381348241121 9.2745804954320281 3.3934146650135508 19.893386654555798 20.898031659424305 6.3666392005980006 3.0602690046653143 7.4610054148361078 2.6557342945598057 2.1488257502205661
leaf_count=3311 1677 188 3059 264 731 526 243 472 1015 10154 239 214 83424 365 143 91 66 61 4 114 566 89 42 37 53 27 68 28 59 134
internal_value=3.22707e-10 0.0334438 -0.0429339 0.015728 0.00965712 -0.00757017 0.0230412 -0.000192468 -0.0146333 -0.0472931 -0.0312722 -0.0431684 -0.0498263 0.0472137 0.0104895 0.0376712 0.0372725 0.00382774 -0.0298783 -0.026429 -0.00197712 0.0113314 0.0264325 0.0296677 0.0223227 0.0151728 0.00694612 0.0163119 0.000127462 -0.0384103
internal_weight=1059.56 595.604 463.952 260.48 194.45 50.914 82.4346 112.016 47.6281 413.038 56.3915 42.865 356.646 335.124 64.3878 107.969 42.1938 37.1749 6.76898 25.8876 36.1333 30.4059 28.2545 63.3327 43.4393 28.8182 22.4516 19.3913 11.9303 13.7391
internal_count=107464 5953 101511 5219 4955 4055 1040 3915 2692 97456 10607 10368 86849 734 1223 369 309 862 530 3425 1038 332 185 278 241 271 244 176 148 3193
is_linear=0
shrinkage=0.05


Tree=28
num_leaves=31
num_cat=0
split_feature=1 1 19 19 2 10 17 4 1 2 11 3 6 17 19 11 4 11 2 4 4 2 6 6 6 6 13 4 18 5
split_gain=567.251 56.9655 27.2412 10.6044 9.13556 6.74234 6.72182 10.2936 6.16509 5.68503 5.35347 5.31751 4.41151 3.74058 3.71937 5.45382 6.09263 3.57255 3.41083 3.39832 3.3909 3.13225 2.87819 2.57834 6.43922 4.66731 2.88271 2.50179 3.80621 4.05355
threshold=32.500000000000007 165.50000000000003 0.17467285917689337 0.96550588535248383 7.5000000000000009 0.60355000000000014 1.0000000180025095e-35 0.047750000000000008 326.50000000000006 29.500000000000004 -1.0000000180025095e-35 9.1550000000000029 566.50000000000011 1.0000000180025095e-35 0.88122392484144518 0.60355000000000014 0.89200000000000013 -0.3793999999999999 14.500000000000002 1.3001500000000001 0.33285000000000003 3.5000000000000004 79.500000000000014 463.50000000000006 111.50000000000001 711.50000000000011 1.0000000180025095e-35 0.45025000000000004 3.4608877906116908 6.6050000000000013
decision_type=2 2 2 2 2 2 2 2 2 2 2 2 2 2 2 2 2 2 2 2 2 2 2 2 2 2 2 2 2 2
left_child=2 3 6 4 13 -4 9 -8 14 11 -6 -1 -12 20 15 16 -3 19 -18 -7 -2 -5 -19 24 26 -25 -23 28 29 -24
right_child=1 8 5 21 10 17 7 -9 -10 -11 12 -13 -14 -15 -16 -17 18 22 -20 -21 -22 23 27 25 -26 -27 -28 -29 -30 -31
leaf_value=-0.027746552406199859 -0.036362764720185896 0.011676257140407015 -0.037911469963923111 -0.001788177967745155 0.0037498729084570223 -0.050636261951081299 -0.049192352066547269 -0.0063491813190295803 0.057280912101634475 -0.0040385256543897857 0.011521829948133012 -0.052327524459930858 0.037527106789226897 0.024141007952842915 0.050184269232370286 0.052939983894541548 0.0095811596520547354 -0.056441468734330362 0.043023314400101237 0.032922253633232958 -0.0059817862358857408 0.015189328449590698 0.024441038172064396 0.048495931794514939 -0.00708689749397097 0.0088877523817966902 0.055811702083403331 0.050960266053358266 -0.05539501801378497 -0.034876663929840269
leaf_weight=23.705674775643274 12.27084873523563 29.310032086446881 13.19432772870641 7.1957346312701693 50.467865868704394 4.8526526945643118 33.263309662230313 24.234171762596816 95.987268179655075 6.7003440097905687 30.52457384718582 306.02477341145277 35.015642875805497 7.5753056555986396 87.9707146063447 38.698800802230835 8.713300406932829 1.4857524619437779 61.016184866428375 1.624039366841316 36.514772847527638 7.1397410295903727 18.100462229456763 35.905623510479927 11.967391753569244 9.3808773662894946 11.246695972979069 4.1165936291217795 2.1081112162210038 3.4250865392386904
leaf_count=3282 1382 199 3193 81 1489 523 3469 817 121 457 469 89431 210 42 158 46 51 61 159 7 1235 41 148 101 83 63 23 14 42 67
